{"learner":{"attributes":{"scikit_learn":"{\"_estimator_type\": \"regressor\"}"},"feature_names":["distance (clean)","radius (clean)","Distance_Radius_Interaction","mass (clean)","star mass (clean)","Period (days)","Mass_x_Radius","Log_Period"],"feature_types":["float","float","float","float","float","float","float","float"],"gradient_booster":{"model":{"gbtree_model_param":{"num_parallel_tree":"1","num_trees":"100"},"iteration_indptr":[0,1,2,3,4,5,6,7,8,9,10,11,12,13,14,15,16,17,18,19,20,21,22,23,24,25,26,27,28,29,30,31,32,33,34,35,36,37,38,39,40,41,42,43,44,45,46,47,48,49,50,51,52,53,54,55,56,57,58,59,60,61,62,63,64,65,66,67,68,69,70,71,72,73,74,75,76,77,78,79,80,81,82,83,84,85,86,87,88,89,90,91,92,93,94,95,96,97,98,99,100],"tree_info":[0,0,0,0,0,0,0,0,0,0,0,0,0,0,0,0,0,0,0,0,0,0,0,0,0,0,0,0,0,0,0,0,0,0,0,0,0,0,0,0,0,0,0,0,0,0,0,0,0,0,0,0,0,0,0,0,0,0,0,0,0,0,0,0,0,0,0,0,0,0,0,0,0,0,0,0,0,0,0,0,0,0,0,0,0,0,0,0,0,0,0,0,0,0,0,0,0,0,0,0],"trees":[{"base_weights":[1.2903994E0,-3.8148907E2,2.706871E2,-1.357285E3,-2.4740869E2,1.1723097E2,4.7059213E2,-1.6323898E3,-6.6995734E2,-4.237711E2,-9.1835556E1,-1.0799958E2,2.7684607E2,4.1512582E2,1.0974723E3,-2.0308973E3,-1.4057981E3,-9.5413043E2,-1.4854288E2,-8.304859E2,-1.5163408E2,-1.0290412E2,1.4392157E2,-1.3076727E2,2.1274658E3,2.896801E2,-1.18257E3,4.235273E2,-3.2673834E2,8.488024E2,2.082807E3,-2.1328185E2,-7.332843E1,-8.740891E2,-1.6295328E3,8.623008E1,-1.1388119E3,-9.110343E2,9.749625E1,-4.8422452E2,-9.985208E2,-5.1136833E1,-6.3299817E2,-3.3742538E2,-4.5508503E1,-3.698498E2,-4.306429E1,4.059644E2,1.3019173E1,3.7317853E2,1.3943842E2,-2.0138083E2,4.28584E1,2.3389606E2,4.5917474E2,3.9510367E2,-2.6898163E2,8.813683E2,6.652506E1,2.204159E2,4.3464382E1,-1.3516531E2,-2.7364765E1,-4.6847496E1,-1.671661E2,1.3019173E1,1.3525065E0,-1.704182E2,-8.390234E1,-1.3091417E2,1.416438E1,2.8115885E1,-3.860343E1,-8.593516E1,4.2170186E0,-1.5779315E2,-9.142628E1,-1.4660289E1,2.2684748E1,-4.2743694E1,-8.5572495E1,-2.8374372E1,-2.1038084E2,1.2916774E1,-2.2157217E1,-1.2235155E1,-5.047018E1,5.921944E-2,-2.821962E1,3.1062113E1,5.1292976E1,2.750921E0,2.695152E1,3.3464382E1,-2.703562E1,2.8736105E1,-2.6899643E2,4.2794716E1,8.099856E1,-1.5447494E1,6.458301E1,1.6696439E2,8.267479E1,-2.903562E1,3.901438E1],"categories":[],"categories_nodes":[],"categories_segments":[],"categories_sizes":[],"default_left":[0,0,0,0,0,0,0,0,0,0,0,0,0,0,0,0,0,0,0,0,0,0,0,0,0,0,0,0,0,0,0,0,0,0,0,0,0,0,0,0,0,0,0,0,0,0,0,0,0,0,0,0,0,0,0,0,0,0,0,0,0,0,0,0,0,0,0,0,0,0,0,0,0,0,0,0,0,0,0,0,0,0,0,0,0,0,0,0,0,0,0,0,0,0,0,0,0,0,0,0,0,0,0,0,0],"id":0,"left_children":[1,3,5,7,9,11,13,15,17,19,21,23,25,27,29,31,33,35,37,39,41,43,-1,45,47,49,51,53,55,57,59,-1,-1,61,63,65,67,69,71,73,75,77,79,81,83,85,87,-1,-1,89,91,-1,93,95,97,99,-1,101,103,-1,-1,-1,-1,-1,-1,-1,-1,-1,-1,-1,-1,-1,-1,-1,-1,-1,-1,-1,-1,-1,-1,-1,-1,-1,-1,-1,-1,-1,-1,-1,-1,-1,-1,-1,-1,-1,-1,-1,-1,-1,-1,-1,-1,-1,-1],"loss_changes":[2.918284E8,1.5261043E8,5.089876E7,2.5567664E7,2.8194004E7,3.385903E7,2.4614096E7,6.174832E6,6.081494E6,5.322287E7,9.434808E6,2.0178684E7,1.0662932E7,4.276944E6,1.244344E7,2.932672E6,6.54608E6,5.285852E6,3.090466E6,1.0746E7,1.3996604E7,7.320612E6,0E0,8.1197535E6,1.4907824E7,6.810044E6,5.1794235E6,4.333848E6,1.4708906E7,1.164192E6,1.242064E6,0E0,0E0,5.938604E6,1.46688E6,1.4220309E4,2.468452E6,1.8617475E6,1.263021E6,1.2871458E7,4.855152E6,6.42893E6,1.92343E6,9.549051E6,1.3529688E7,3.409314E6,2.97547E6,0E0,0E0,2.90928E6,2.8607858E6,0E0,3.6464734E5,1.7343352E7,5.70052E6,1.0643218E6,0E0,6.002E5,4.5976106E5,0E0,0E0,0E0,0E0,0E0,0E0,0E0,0E0,0E0,0E0,0E0,0E0,0E0,0E0,0E0,0E0,0E0,0E0,0E0,0E0,0E0,0E0,0E0,0E0,0E0,0E0,0E0,0E0,0E0,0E0,0E0,0E0,0E0,0E0,0E0,0E0,0E0,0E0,0E0,0E0,0E0,0E0,0E0,0E0,0E0,0E0],"parents":[2147483647,0,0,1,1,2,2,3,3,4,4,5,5,6,6,7,7,8,8,9,9,10,10,11,11,12,12,13,13,14,14,15,15,16,16,17,17,18,18,19,19,20,20,21,21,23,23,24,24,25,25,26,26,27,27,28,28,29,29,30,30,33,33,34,34,35,35,36,36,37,37,38,38,39,39,40,40,41,41,42,42,43,43,44,44,45,45,46,46,49,49,50,50,52,52,53,53,54,54,55,55,57,57,58,58],"right_children":[2,4,6,8,10,12,14,16,18,20,22,24,26,28,30,32,34,36,38,40,42,44,-1,46,48,50,52,54,56,58,60,-1,-1,62,64,66,68,70,72,74,76,78,80,82,84,86,88,-1,-1,90,92,-1,94,96,98,100,-1,102,104,-1,-1,-1,-1,-1,-1,-1,-1,-1,-1,-1,-1,-1,-1,-1,-1,-1,-1,-1,-1,-1,-1,-1,-1,-1,-1,-1,-1,-1,-1,-1,-1,-1,-1,-1,-1,-1,-1,-1,-1,-1,-1,-1,-1,-1,-1],"split_conditions":[2.0114E2,1.11186E1,7.104E2,7.42E1,2.13E-1,2.01E3,1.49E0,7.6E-3,4.11E1,7.58E2,1.101E0,4.191E3,7.351E2,1.13E1,1.6E0,1.044E2,3.4456E-3,1.6E-2,1.2442E2,3.23248E-2,9.8406E-2,9.56E1,1.4392157E2,5.63E0,1E3,1.94E-1,8E-1,6.11E-1,1.119E0,5.54E0,5.9E3,-2.1328185E2,-7.332843E1,1.1E-2,5.9E-2,1.21E1,3.4E-2,2.14E-1,2.613E3,3.07E2,1.82115E1,1.55E3,1.374E1,1.13E1,4.82747E1,9.9045E-2,2.74131E-1,4.059644E2,1.3019173E1,4.824E2,5.8548E2,-2.0138083E2,2.83E3,1.46E0,1.35E0,1.4E1,-2.6898163E2,4.7E2,1.296E3,2.204159E2,4.3464382E1,-1.3516531E2,-2.7364765E1,-4.6847496E1,-1.671661E2,1.3019173E1,1.3525065E0,-1.704182E2,-8.390234E1,-1.3091417E2,1.416438E1,2.8115885E1,-3.860343E1,-8.593516E1,4.2170186E0,-1.5779315E2,-9.142628E1,-1.4660289E1,2.2684748E1,-4.2743694E1,-8.5572495E1,-2.8374372E1,-2.1038084E2,1.2916774E1,-2.2157217E1,-1.2235155E1,-5.047018E1,5.921944E-2,-2.821962E1,3.1062113E1,5.1292976E1,2.750921E0,2.695152E1,3.3464382E1,-2.703562E1,2.8736105E1,-2.6899643E2,4.2794716E1,8.099856E1,-1.5447494E1,6.458301E1,1.6696439E2,8.267479E1,-2.903562E1,3.901438E1],"split_indices":[2,2,2,5,1,0,1,3,0,0,1,5,5,3,3,0,6,3,5,6,6,0,0,5,0,1,3,3,1,5,0,0,0,3,1,0,3,1,5,0,2,0,5,3,2,6,6,0,0,2,2,0,0,1,1,3,0,0,0,0,0,0,0,0,0,0,0,0,0,0,0,0,0,0,0,0,0,0,0,0,0,0,0,0,0,0,0,0,0,0,0,0,0,0,0,0,0,0,0,0,0,0,0,0,0],"split_type":[0,0,0,0,0,0,0,0,0,0,0,0,0,0,0,0,0,0,0,0,0,0,0,0,0,0,0,0,0,0,0,0,0,0,0,0,0,0,0,0,0,0,0,0,0,0,0,0,0,0,0,0,0,0,0,0,0,0,0,0,0,0,0,0,0,0,0,0,0,0,0,0,0,0,0,0,0,0,0,0,0,0,0,0,0,0,0,0,0,0,0,0,0,0,0,0,0,0,0,0,0,0,0,0,0],"sum_hessian":[2.828E3,1.168E3,1.66E3,1.4E2,1.028E3,9.4E2,7.2E2,9.9E1,4.1E1,4.81E2,5.47E2,3.9E2,5.5E2,6.63E2,5.7E1,3.3E1,6.6E1,2.6E1,1.5E1,1.92E2,2.89E2,5.44E2,3E0,3.87E2,3E0,5.46E2,4E0,6.56E2,7E0,4.7E1,1E1,3E1,3E0,2.1E1,4.5E1,4E0,2.2E1,3E0,1.2E1,6.4E1,1.28E2,2.4E2,4.9E1,1.06E2,4.38E2,1.03E2,2.84E2,1E0,2E0,3.5E2,1.96E2,2E0,2E0,1.05E2,5.51E2,6E0,1E0,4.5E1,2E0,9E0,1E0,1.1E1,1E1,2E0,4.3E1,2E0,2E0,6E0,1.6E1,2E0,1E0,9E0,3E0,3.7E1,2.7E1,1.4E1,1.14E2,1.79E2,6.1E1,2.7E1,2.2E1,1.04E2,2E0,2.2E2,2.18E2,3.7E1,6.6E1,2.41E2,4.3E1,2.44E2,1.06E2,1.06E2,9E1,1E0,1E0,1.04E2,1E0,5.08E2,4.3E1,2E0,4E0,1E0,4.4E1,1E0,1E0],"tree_param":{"num_deleted":"0","num_feature":"8","num_nodes":"105","size_leaf_vector":"1"}},{"base_weights":[1.4184704E1,-1.1087666E3,2.4568529E2,-1.4973557E3,-6.507312E2,3.808456E0,4.6096628E2,-1.8946637E3,-1.2758711E3,-6.9695105E2,2.054044E3,-2.4368962E2,1.3440813E2,5.561554E2,1.3212273E2,-2.1544469E2,-1.7245349E3,-1.332616E3,-1.12699326E2,-9.021288E2,-5.82398E2,1.6761736E1,3.8566617E2,-2.3088184E2,-2.5553255E2,3.835246E1,1.7698013E2,4.1920966E2,7.628101E2,2.3694316E2,-3.1931808E2,-1.7682645E2,-8.898579E2,-1.3614211E3,1.4554651E1,1.7598406E1,-5.1754956E2,1.8748177E1,-9.336848E2,-6.136282E2,-4.5764755E1,-3.0138504E2,-1.1955548E2,5.2832516E1,-4.9414835E2,8.714571E0,2.0299648E2,3.1981766E2,4.7490747E2,6.6707526E2,1.0251544E3,2.1512839E2,1.1624939E3,-3.8536334E2,9.098906E2,1.3959497E1,-1.1821199E2,-1.3884135E2,-9.514766E1,-8.5056366E1,2.4074635E1,-9.59419E1,3.742513E-1,-2.6261802E0,-6.3584633E1,2.4959026E1,-7.1967155E1,-3.8751324E1,-2.3082663E1,-1.9489492E1,-8.612853E0,-1.4903854E0,8.703706E0,-1.7233822E1,-6.1196888E1,2.6238464E1,-1.1021003E1,2.9343887E1,1.6897518E1,3.429283E1,1.4962184E1,5.1683094E1,3.3920227E1,5.031695E1,6.993852E1,3.4643852E1,1.2233886E2,4.537223E1,1.2451884E1,9.31853E0,1.4065247E2,-1.5202332E0,-5.391748E1,1.796168E2,-4.3133205E1],"categories":[],"categories_nodes":[],"categories_segments":[],"categories_sizes":[],"default_left":[0,0,0,0,0,0,0,0,0,0,0,0,0,0,0,0,0,0,0,0,0,0,0,0,0,0,0,0,0,0,0,0,0,0,0,0,0,0,0,0,0,0,0,0,0,0,0,0,0,0,0,0,0,0,0,0,0,0,0,0,0,0,0,0,0,0,0,0,0,0,0,0,0,0,0,0,0,0,0,0,0,0,0,0,0,0,0,0,0,0,0,0,0,0,0],"id":1,"left_children":[1,3,5,7,9,11,13,15,17,19,21,23,25,27,29,-1,31,33,35,37,39,-1,-1,41,-1,43,45,47,49,51,53,-1,55,57,-1,-1,59,-1,61,63,65,67,69,71,73,75,77,79,81,83,85,87,89,91,93,-1,-1,-1,-1,-1,-1,-1,-1,-1,-1,-1,-1,-1,-1,-1,-1,-1,-1,-1,-1,-1,-1,-1,-1,-1,-1,-1,-1,-1,-1,-1,-1,-1,-1,-1,-1,-1,-1,-1,-1],"loss_changes":[7.3311066E8,8.481562E7,1.2174139E8,2.0461952E7,2.930976E7,3.5652884E7,3.864747E7,3.06496E5,1.1070496E7,4.645416E6,1.295558E7,1.069027E7,2.945674E6,2.6820448E7,1.3278002E7,0E0,6.16496E5,7.095904E6,1.1429422E6,2.822604E6,2.385232E6,0E0,0E0,2.946536E6,0E0,1.7455804E6,2.187059E6,3.053408E6,8.885136E6,4.333202E6,4.653359E6,0E0,1.6693675E6,4.38336E5,0E0,0E0,1.2148628E6,0E0,1.81288E6,1.758128E6,1.9709989E6,1.320432E6,3.58451E5,5.063795E5,1.22029375E5,2.0803149E6,1.282742E6,7.78626E5,1.924024E6,1.141496E6,1.3030632E7,4.764514E6,1.1736535E6,2.895489E6,4.34083E6,0E0,0E0,0E0,0E0,0E0,0E0,0E0,0E0,0E0,0E0,0E0,0E0,0E0,0E0,0E0,0E0,0E0,0E0,0E0,0E0,0E0,0E0,0E0,0E0,0E0,0E0,0E0,0E0,0E0,0E0,0E0,0E0,0E0,0E0,0E0,0E0,0E0,0E0,0E0,0E0],"parents":[2147483647,0,0,1,1,2,2,3,3,4,4,5,5,6,6,7,7,8,8,9,9,10,10,11,11,12,12,13,13,14,14,16,16,17,17,18,18,19,19,20,20,23,23,25,25,26,26,27,27,28,28,29,29,30,30,32,32,33,33,36,36,38,38,39,39,40,40,41,41,42,42,43,43,44,44,45,45,46,46,47,47,48,48,49,49,50,50,51,51,52,52,53,53,54,54],"right_children":[2,4,6,8,10,12,14,16,18,20,22,24,26,28,30,-1,32,34,36,38,40,-1,-1,42,-1,44,46,48,50,52,54,-1,56,58,-1,-1,60,-1,62,64,66,68,70,72,74,76,78,80,82,84,86,88,90,92,94,-1,-1,-1,-1,-1,-1,-1,-1,-1,-1,-1,-1,-1,-1,-1,-1,-1,-1,-1,-1,-1,-1,-1,-1,-1,-1,-1,-1,-1,-1,-1,-1,-1,-1,-1,-1,-1,-1,-1,-1],"split_conditions":[7.6E-1,6.04E-1,9.77E-1,3.79E-1,7.3365E3,8.7E-1,1.4254E2,1.977E-1,6.6048E2,6.7E-1,1.18002E1,5.01198E3,9.3E-1,1.15E0,1.52E0,-2.1544469E2,2.2562E2,1.13E1,5.8E-1,1.26E-2,7.475E2,1.6761736E1,3.8566617E2,8.26E-1,-2.5553255E2,4.67E0,8.938E1,1.03E0,1.37E0,1.1613E4,5.355E2,-1.7682645E2,7.8384E0,1.5188E2,1.4554651E1,1.7598406E1,6.44E-1,1.8748177E1,1.05289E3,4.473E0,1.10148E3,8.71E0,4.97E0,8.9E-1,9.07E0,6.11E-1,9.2655E-2,6.44E-1,2.53683E-1,6.11E-1,4.5799E2,9.5E-1,3.84252E1,4.82747E1,6.1325E2,1.3959497E1,-1.1821199E2,-1.3884135E2,-9.514766E1,-8.5056366E1,2.4074635E1,-9.59419E1,3.742513E-1,-2.6261802E0,-6.3584633E1,2.4959026E1,-7.1967155E1,-3.8751324E1,-2.3082663E1,-1.9489492E1,-8.612853E0,-1.4903854E0,8.703706E0,-1.7233822E1,-6.1196888E1,2.6238464E1,-1.1021003E1,2.9343887E1,1.6897518E1,3.429283E1,1.4962184E1,5.1683094E1,3.3920227E1,5.031695E1,6.993852E1,3.4643852E1,1.2233886E2,4.537223E1,1.2451884E1,9.31853E0,1.4065247E2,-1.5202332E0,-5.391748E1,1.796168E2,-4.3133205E1],"split_indices":[4,4,4,4,5,4,5,4,2,4,2,2,4,4,4,0,5,3,4,3,2,0,0,4,0,3,2,4,4,5,2,0,2,5,0,0,3,0,2,2,2,5,5,4,5,3,6,3,6,3,2,3,2,2,2,0,0,0,0,0,0,0,0,0,0,0,0,0,0,0,0,0,0,0,0,0,0,0,0,0,0,0,0,0,0,0,0,0,0,0,0,0,0,0,0],"split_type":[0,0,0,0,0,0,0,0,0,0,0,0,0,0,0,0,0,0,0,0,0,0,0,0,0,0,0,0,0,0,0,0,0,0,0,0,0,0,0,0,0,0,0,0,0,0,0,0,0,0,0,0,0,0,0,0,0,0,0,0,0,0,0,0,0,0,0,0,0,0,0,0,0,0,0,0,0,0,0,0,0,0,0,0,0,0,0,0,0,0,0,0,0,0,0],"sum_hessian":[2.818E3,4.81E2,2.337E3,2.59E2,2.22E2,1.101E3,1.236E3,9E1,1.69E2,2.19E2,3E0,3.8E2,7.21E2,9.58E2,2.78E2,3.1E1,5.9E1,1.61E2,8E0,7.6E1,1.43E2,2E0,1E0,3.79E2,1E0,2.22E2,4.99E2,5.78E2,3.8E2,2.26E2,5.2E1,5.5E1,4E0,1.58E2,3E0,5E0,3E0,2E0,7.4E1,1.35E2,8E0,2.31E2,1.48E2,2.17E2,5E0,6.7E1,4.32E2,2.1E2,3.68E2,2.81E2,9.9E1,2.22E2,4E0,5E1,2E0,1E0,3E0,1.46E2,1.2E1,2E0,1E0,7.2E1,2E0,5E0,1.3E2,6E0,2E0,1.02E2,1.29E2,4.4E1,1.04E2,7.3E1,1.44E2,2E0,3E0,2.1E1,4.6E1,1.16E2,3.16E2,1.84E2,2.6E1,2.79E2,8.9E1,4.9E1,2.32E2,2.3E1,7.6E1,6E1,1.62E2,1E0,3E0,1.5E1,3.5E1,1E0,1E0],"tree_param":{"num_deleted":"0","num_feature":"8","num_nodes":"95","size_leaf_vector":"1"}},{"base_weights":[-8.359492E0,-1.0444724E3,2.2298312E2,-1.5104812E3,-6.870812E2,-5.978708E0,4.032643E2,-2.2128426E2,-1.4070759E3,-9.486537E2,-5.521433E2,-2.172722E2,1.0907851E2,4.881597E2,1.1423281E2,-1.4313271E3,1.2693946E1,-1.0493965E3,-5.48354E2,-7.034695E1,-5.775317E2,-2.043893E2,-2.427559E2,-1.843654E2,1.2182591E2,3.5732492E2,6.7497046E2,2.1606511E2,-2.735869E2,-1.6114125E2,-1.2582582E3,-1.0885426E3,2.9210402E1,-6.266172E2,1.5618555E1,-1.7677797E2,9.2725876E1,-6.2796704E2,-4.226734E2,-2.751243E2,-1.1012606E2,-8.1126935E2,1.0695964E2,3.9311367E1,1.6240982E2,2.912467E2,4.1220325E2,6.025836E2,1.0664055E3,4.5067606E2,1.0543227E2,-3.3401816E2,1.7063597E2,-1.3128949E2,-3.1359304E1,-2.0376986E1,-1.1097018E2,-3.7254013E1,-8.9576256E1,1.1263916E1,-2.4378736E1,1.3121411E1,5.0300293E0,-3.1868876E1,-6.444216E1,-7.342167E1,-3.0178867E1,-2.4691692E1,-4.7756676E1,-1.5965581E1,-5.308425E0,4.9005127E0,-9.2492935E1,-1.3242188E0,1.7270233E1,7.3523674E0,-7.529921E0,1.1030354E1,2.241539E1,-2.4517262E1,2.9413084E1,4.5509212E1,2.7506144E1,6.684625E1,5.288974E1,3.552232E0,1.1742964E2,4.8378582E1,5.992634E0,2.768637E1,-1.6563353E1,1.8998072E0,-4.9416832E1],"categories":[],"categories_nodes":[],"categories_segments":[],"categories_sizes":[],"default_left":[0,0,0,0,0,0,0,0,0,0,0,0,0,0,0,0,0,0,0,0,0,0,0,0,0,0,0,0,0,0,0,0,0,0,0,0,0,0,0,0,0,0,0,0,0,0,0,0,0,0,0,0,0,0,0,0,0,0,0,0,0,0,0,0,0,0,0,0,0,0,0,0,0,0,0,0,0,0,0,0,0,0,0,0,0,0,0,0,0,0,0,0,0],"id":2,"left_children":[1,3,5,7,9,11,13,-1,15,17,19,21,23,25,27,29,-1,31,33,35,37,39,-1,41,43,45,47,49,51,-1,53,55,-1,57,-1,59,61,63,65,67,69,71,73,75,77,79,81,83,85,87,89,91,-1,-1,-1,-1,-1,-1,-1,-1,-1,-1,-1,-1,-1,-1,-1,-1,-1,-1,-1,-1,-1,-1,-1,-1,-1,-1,-1,-1,-1,-1,-1,-1,-1,-1,-1,-1,-1,-1,-1,-1,-1],"loss_changes":[6.8025344E8,8.523379E7,9.576622E7,1.3154976E7,9.888528E6,2.489369E7,3.1793824E7,0E0,7.547648E6,3.416968E6,2.369076E6,9.783276E6,2.5025105E6,2.4273488E7,1.1748914E7,4.050048E6,0E0,4.414104E6,1.3109385E6,2.0730797E5,1.195112E6,2.370078E6,0E0,5.2004925E6,2.123428E6,2.026696E6,1.1031296E7,6.052068E6,7.9882945E6,0E0,4.95608E6,1.196672E6,0E0,1.0339655E6,0E0,1.6321562E5,1.5643164E3,5.02004E5,1.623803E6,1.052707E6,4.3226625E5,9.25335E5,1.6033483E5,8.328869E5,1.345827E6,4.92924E5,1.7629E6,1.345488E6,6.96532E6,9.4133E5,7.527398E6,3.4580615E6,0E0,0E0,0E0,0E0,0E0,0E0,0E0,0E0,0E0,0E0,0E0,0E0,0E0,0E0,0E0,0E0,0E0,0E0,0E0,0E0,0E0,0E0,0E0,0E0,0E0,0E0,0E0,0E0,0E0,0E0,0E0,0E0,0E0,0E0,0E0,0E0,0E0,0E0,0E0,0E0,0E0],"parents":[2147483647,0,0,1,1,2,2,3,3,4,4,5,5,6,6,8,8,9,9,10,10,11,11,12,12,13,13,14,14,15,15,17,17,18,18,19,19,20,20,21,21,23,23,24,24,25,25,26,26,27,27,28,28,30,30,31,31,33,33,35,35,36,36,37,37,38,38,39,39,40,40,41,41,42,42,43,43,44,44,45,45,46,46,47,47,48,48,49,49,50,50,51,51],"right_children":[2,4,6,8,10,12,14,-1,16,18,20,22,24,26,28,30,-1,32,34,36,38,40,-1,42,44,46,48,50,52,-1,54,56,-1,58,-1,60,62,64,66,68,70,72,74,76,78,80,82,84,86,88,90,92,-1,-1,-1,-1,-1,-1,-1,-1,-1,-1,-1,-1,-1,-1,-1,-1,-1,-1,-1,-1,-1,-1,-1,-1,-1,-1,-1,-1,-1,-1,-1,-1,-1,-1,-1,-1,-1,-1,-1,-1,-1],"split_conditions":[7.7E-1,5.52E-1,9.7E-1,1.6E-1,6.5E-1,8.7E-1,4.778535E0,-2.2128426E2,6.6048E2,3.5333946E0,7.8384E0,1.38E0,9.1E-2,1.13E0,1.52E0,1.7892E1,1.2693946E1,1.05289E3,7.77191E0,8.12E-2,2.8726E2,8.3E-1,-2.427559E2,5.30583E1,9.3E-1,1.03E0,1.449E0,9.8E-1,5.355E2,-1.6114125E2,1.03E0,7.8384E0,2.9210402E1,2.13426E1,1.5618555E1,2.556E0,2.556E0,1.26E-2,1.5260563E0,3.3567E-1,3.43068E2,9.2E-1,9.27E-1,1.9383E-1,4.824E2,6.6E-2,4.07E-1,3.08E-1,1.73512E2,1.32E0,5.481E1,4.82747E1,1.7063597E2,-1.3128949E2,-3.1359304E1,-2.0376986E1,-1.1097018E2,-3.7254013E1,-8.9576256E1,1.1263916E1,-2.4378736E1,1.3121411E1,5.0300293E0,-3.1868876E1,-6.444216E1,-7.342167E1,-3.0178867E1,-2.4691692E1,-4.7756676E1,-1.5965581E1,-5.308425E0,4.9005127E0,-9.2492935E1,-1.3242188E0,1.7270233E1,7.3523674E0,-7.529921E0,1.1030354E1,2.241539E1,-2.4517262E1,2.9413084E1,4.5509212E1,2.7506144E1,6.684625E1,5.288974E1,3.552232E0,1.1742964E2,4.8378582E1,5.992634E0,2.768637E1,-1.6563353E1,1.8998072E0,-4.9416832E1],"split_indices":[4,4,4,4,4,4,7,0,2,7,2,1,1,4,4,2,0,2,7,1,2,4,0,2,4,4,4,3,2,0,3,2,0,2,0,2,2,3,7,6,2,4,4,6,2,1,1,1,2,4,2,2,0,0,0,0,0,0,0,0,0,0,0,0,0,0,0,0,0,0,0,0,0,0,0,0,0,0,0,0,0,0,0,0,0,0,0,0,0,0,0,0,0],"split_type":[0,0,0,0,0,0,0,0,0,0,0,0,0,0,0,0,0,0,0,0,0,0,0,0,0,0,0,0,0,0,0,0,0,0,0,0,0,0,0,0,0,0,0,0,0,0,0,0,0,0,0,0,0,0,0,0,0,0,0,0,0,0,0,0,0,0,0,0,0,0,0,0,0,0,0,0,0,0,0,0,0,0,0,0,0,0,0,0,0,0,0,0,0],"sum_hessian":[2.836E3,5.17E2,2.319E3,2.23E2,2.94E2,1.022E3,1.297E3,2.6E1,1.97E2,9.8E1,1.96E2,3.6E2,6.62E2,1.002E3,2.95E2,1.94E2,3E0,7.7E1,2.1E1,1E1,1.86E2,3.59E2,1E0,2.7E1,6.35E2,5.91E2,4.11E2,2.34E2,6.1E1,9.1E1,1.03E2,7.5E1,2E0,1.9E1,2E0,6E0,4E0,1.38E2,4.8E1,2.04E2,1.55E2,8E0,1.9E1,2.1E2,4.25E2,2.71E2,3.2E2,3.49E2,6.2E1,7.4E1,1.6E2,6E1,1E0,9.7E1,6E0,2E0,7.3E1,1.1E1,8E0,1E0,5E0,1E0,3E0,8E0,1.3E2,1.2E1,3.6E1,1.81E2,2.3E1,8.2E1,7.3E1,1E0,7E0,7E0,1.2E1,1.62E2,4.8E1,2.32E2,1.93E2,1E0,2.7E2,2.42E2,7.8E1,1.8E2,1.69E2,6E0,5.6E1,6.8E1,6E0,9.8E1,6.2E1,1.9E1,4.1E1],"tree_param":{"num_deleted":"0","num_feature":"8","num_nodes":"93","size_leaf_vector":"1"}},{"base_weights":[3.0372407E0,-1.1153484E3,1.7225655E2,-1.6339994E3,-9.291723E2,-1.5801118E2,3.054972E2,-2.3875166E2,-1.530975E3,-1.060337E3,-6.947517E2,-2.8394705E2,-1.7492495E1,1.7400612E2,4.021401E2,-1.5513043E2,1.29005375E1,-1.1161166E3,-5.0561047E2,-7.180203E2,6.0651978E1,-3.0308755E2,1.2007244E3,-9.0439156E1,2.4999714E1,1.1734914E2,2.9219977E2,5.0071603E2,1.019098E1,-1.1327659E3,1.3278353E1,-7.874233E1,1.8925252E2,-9.343496E1,-7.430714E2,8.58855E0,2.3612305E1,-4.7635013E2,-2.3160092E2,-3.471194E2,3.6960498E2,-1.8253577E2,-6.3202984E1,3.4985092E1,-5.1047522E2,2.4061064E2,9.554402E1,2.7444843E2,3.6225565E2,4.516636E2,7.7301373E2,2.7873294E2,-3.753656E2,-1.142463E2,1.948418E1,2.479074E1,9.794825E0,-3.5195377E1,1.9622885E1,-3.979871E1,-7.830472E1,3.1486818E-1,3.2269776E0,-5.118198E1,1.0854346E1,-3.0293491E1,-1.7355385E1,1.3567139E1,-5.5327343E1,-3.0659338E1,-8.422829E0,-6.9616585E0,2.79458E1,2.520016E-1,1.0676359E1,-6.1438576E1,-9.937182E0,2.6179676E1,1.3700072E1,-3.4213818E1,1.1857171E1,1.8158129E1,2.8804977E1,3.8257183E1,2.3622553E1,3.703505E1,5.3403362E1,2.0150541E1,9.633969E1,2.2314878E1,1.3161685E2,-3.2846256E1,-2.1576103E2],"categories":[],"categories_nodes":[],"categories_segments":[],"categories_sizes":[],"default_left":[0,0,0,0,0,0,0,0,0,0,0,0,0,0,0,0,0,0,0,0,0,0,0,0,0,0,0,0,0,0,0,0,0,0,0,0,0,0,0,0,0,0,0,0,0,0,0,0,0,0,0,0,0,0,0,0,0,0,0,0,0,0,0,0,0,0,0,0,0,0,0,0,0,0,0,0,0,0,0,0,0,0,0,0,0,0,0,0,0,0,0,0,0],"id":3,"left_children":[1,3,5,7,9,11,13,-1,15,17,19,21,23,25,27,-1,-1,29,31,33,35,37,39,41,43,45,47,49,51,53,-1,-1,55,57,59,-1,61,63,65,67,-1,69,71,73,75,77,79,81,83,85,87,89,91,-1,-1,-1,-1,-1,-1,-1,-1,-1,-1,-1,-1,-1,-1,-1,-1,-1,-1,-1,-1,-1,-1,-1,-1,-1,-1,-1,-1,-1,-1,-1,-1,-1,-1,-1,-1,-1,-1,-1,-1],"loss_changes":[5.414541E8,3.478848E7,1.0940092E8,3.952576E6,7.841952E6,1.2647918E7,2.2435312E7,0E0,3.203568E6,4.912464E6,1.854E6,1.1077274E7,1.0530472E6,5.001476E6,3.940437E7,0E0,0E0,3.47736E6,3.673806E6,1.495232E6,1.7106104E3,4.50964E6,2.059484E7,3.0200794E5,1.1674468E6,1.347754E6,2.02772E5,1.053672E7,2.1433478E7,2.256672E6,0E0,0E0,7.8505625E3,4.434812E5,1.012676E6,0E0,4.2988245E2,2.29612E6,1.04886E6,4.7318047E5,0E0,3.156583E5,2.348285E5,4.9375338E5,1.0981919E5,1.309605E5,4.42485E6,1.97793E5,2.7408E4,4.443776E6,1.318896E7,6.741427E6,6.396685E6,0E0,0E0,0E0,0E0,0E0,0E0,0E0,0E0,0E0,0E0,0E0,0E0,0E0,0E0,0E0,0E0,0E0,0E0,0E0,0E0,0E0,0E0,0E0,0E0,0E0,0E0,0E0,0E0,0E0,0E0,0E0,0E0,0E0,0E0,0E0,0E0,0E0,0E0,0E0,0E0],"parents":[2147483647,0,0,1,1,2,2,3,3,4,4,5,5,6,6,8,8,9,9,10,10,11,11,12,12,13,13,14,14,17,17,18,18,19,19,20,20,21,21,22,22,23,23,24,24,25,25,26,26,27,27,28,28,29,29,32,32,33,33,34,34,36,36,37,37,38,38,39,39,41,41,42,42,43,43,44,44,45,45,46,46,47,47,48,48,49,49,50,50,51,51,52,52],"right_children":[2,4,6,8,10,12,14,-1,16,18,20,22,24,26,28,-1,-1,30,32,34,36,38,40,42,44,46,48,50,52,54,-1,-1,56,58,60,-1,62,64,66,68,-1,70,72,74,76,78,80,82,84,86,88,90,92,-1,-1,-1,-1,-1,-1,-1,-1,-1,-1,-1,-1,-1,-1,-1,-1,-1,-1,-1,-1,-1,-1,-1,-1,-1,-1,-1,-1,-1,-1,-1,-1,-1,-1,-1,-1,-1,-1,-1,-1],"split_conditions":[6.86E-1,4E-1,9.3E-1,1.2E-1,6.04E-1,8.4E-1,1.03E0,-2.3875166E2,2.81E3,1.296E3,9.724E2,7.3365E3,8.7E-1,2.78E3,3.258E2,-1.5513043E2,1.29005375E1,1.13E1,3.559E1,1.26E-2,9.9E2,7.6E-1,3.703E2,4.19E0,6.1E0,2.799E2,9.98E-1,1.37E0,2.595E2,1.05289E3,1.3278353E1,-7.874233E1,1.35E3,1.29E2,7.22E1,8.58855E0,1.27865E3,7.2875E2,8.47E0,5.6E1,3.6960498E2,1.437E3,3.8E3,2.6E3,7.58E2,2.7E0,6.7734E1,4.13E0,1.016E0,1.13E0,4.5799E2,5.481E1,5E3,-1.142463E2,1.948418E1,2.479074E1,9.794825E0,-3.5195377E1,1.9622885E1,-3.979871E1,-7.830472E1,3.1486818E-1,3.2269776E0,-5.118198E1,1.0854346E1,-3.0293491E1,-1.7355385E1,1.3567139E1,-5.5327343E1,-3.0659338E1,-8.422829E0,-6.9616585E0,2.79458E1,2.520016E-1,1.0676359E1,-6.1438576E1,-9.937182E0,2.6179676E1,1.3700072E1,-3.4213818E1,1.1857171E1,1.8158129E1,2.8804977E1,3.8257183E1,2.3622553E1,3.703505E1,5.3403362E1,2.0150541E1,9.633969E1,2.2314878E1,1.3161685E2,-3.2846256E1,-2.1576103E2],"split_indices":[4,4,4,4,4,4,4,0,0,0,2,5,4,0,5,0,0,3,5,3,0,4,0,5,3,0,4,4,0,2,0,0,0,0,0,0,2,2,5,0,0,0,0,0,0,3,2,5,4,4,2,2,5,0,0,0,0,0,0,0,0,0,0,0,0,0,0,0,0,0,0,0,0,0,0,0,0,0,0,0,0,0,0,0,0,0,0,0,0,0,0,0,0],"split_type":[0,0,0,0,0,0,0,0,0,0,0,0,0,0,0,0,0,0,0,0,0,0,0,0,0,0,0,0,0,0,0,0,0,0,0,0,0,0,0,0,0,0,0,0,0,0,0,0,0,0,0,0,0,0,0,0,0,0,0,0,0,0,0,0,0,0,0,0,0,0,0,0,0,0,0,0,0,0,0,0,0,0,0,0,0,0,0,0,0,0,0,0,0],"sum_hessian":[2.859E3,3.75E2,2.484E3,9.7E1,2.78E2,7.14E2,1.77E3,9E0,8.8E1,1.76E2,1.02E2,3.76E2,3.38E2,7.51E2,1.019E3,8.7E1,1E0,1.59E2,1.7E1,9.9E1,3E0,3.72E2,4E0,1.24E2,2.14E2,5.09E2,2.42E2,8.14E2,2.05E2,1.57E2,2E0,1.2E1,5E0,4E0,9.5E1,1E0,2E0,1.07E2,2.65E2,3E0,1E0,2.7E1,9.7E1,2.11E2,3E0,7.5E1,4.34E2,1.97E2,4.5E1,6.92E2,1.22E2,1.21E2,8.4E1,1.56E2,1E0,2E0,3E0,2E0,2E0,1.1E1,8.4E1,1E0,1E0,1.01E2,6E0,1.17E2,1.48E2,1E0,2E0,1.1E1,1.6E1,9.6E1,1E0,1.46E2,6.5E1,2E0,1E0,6.1E1,1.4E1,2.1E1,4.13E2,2.7E1,1.7E2,3.7E1,8E0,3.51E2,3.41E2,3.1E1,9.1E1,1.16E2,5E0,8.3E1,1E0],"tree_param":{"num_deleted":"0","num_feature":"8","num_nodes":"93","size_leaf_vector":"1"}},{"base_weights":[-4.102198E-2,-8.682818E2,1.714137E2,-1.179025E3,-5.793613E2,-1.115987E1,3.376924E2,-1.5124986E2,-1.0568793E3,-6.2141516E2,-4.6436344E1,-2.0190784E2,7.866201E1,4.075465E2,1.1183061E2,-1.123199E3,-4.4181442E2,-7.5521716E2,-4.7974576E2,2.1640712E2,-6.5199835E2,-1.8980794E2,-2.2910344E2,8.514932E0,1.1601967E2,3.5756476E2,7.741587E2,2.4427248E2,-8.890228E1,-1.1296058E3,-8.1089115E0,2.9683087E2,-6.7405817E2,-4.0849518E2,-8.5695575E2,-2.013501E2,-5.17081E2,-2.8255893E2,3.2311472E2,6.1769533E0,-8.071059E1,-2.2719893E2,-1.0647317E2,7.7663445E1,-1.0368231E2,2.5354055E1,1.7144203E2,2.908856E2,4.717311E2,6.531026E2,1.102283E3,4.0414975E2,1.5317319E2,-1.5273799E2,8.079309E2,-1.13459526E2,-1.9309132E1,4.1040886E1,8.430924E0,-1.2403666E2,-9.428095E0,-7.792577E1,-1.9185722E1,-5.5646053E1,-8.9265686E1,-2.419677E1,1.836482E1,-7.515274E1,-4.4033627E1,-6.2819996E1,2.0436157E1,6.232121E0,5.0049274E1,-6.4727983E0,-2.5985136E1,1.0567423E-1,-1.3366267E1,4.6750984E0,1.685517E1,-2.5650843E1,7.677485E0,6.2886376E0,-4.5607533E0,2.8151854E1,1.1505034E1,3.3093052E1,1.5817227E1,5.3184174E1,4.0355934E1,8.651416E1,4.4539814E1,7.8568695E1,1.7185313E2,2.5680311E1,4.92018E1,2.9566263E1,-1.6772484E1,-1.9255165E1,9.604154E1,1.2810132E2,1.4595337E0],"categories":[],"categories_nodes":[],"categories_segments":[],"categories_sizes":[],"default_left":[0,0,0,0,0,0,0,0,0,0,0,0,0,0,0,0,0,0,0,0,0,0,0,0,0,0,0,0,0,0,0,0,0,0,0,0,0,0,0,0,0,0,0,0,0,0,0,0,0,0,0,0,0,0,0,0,0,0,0,0,0,0,0,0,0,0,0,0,0,0,0,0,0,0,0,0,0,0,0,0,0,0,0,0,0,0,0,0,0,0,0,0,0,0,0,0,0,0,0,0,0],"id":4,"left_children":[1,3,5,7,9,11,13,-1,15,17,19,21,23,25,27,29,31,33,35,37,39,41,-1,43,45,47,49,51,53,55,-1,57,59,61,63,65,67,69,71,-1,-1,73,75,77,79,81,83,85,87,89,91,93,95,97,99,-1,-1,-1,-1,-1,-1,-1,-1,-1,-1,-1,-1,-1,-1,-1,-1,-1,-1,-1,-1,-1,-1,-1,-1,-1,-1,-1,-1,-1,-1,-1,-1,-1,-1,-1,-1,-1,-1,-1,-1,-1,-1,-1,-1,-1,-1],"loss_changes":[4.2336915E8,4.1423744E7,7.210426E7,7.566272E6,5.461968E6,1.9427958E7,1.956568E7,0E0,6.356624E6,3.940624E6,3.1652895E6,8.741133E6,2.019441E6,1.7112592E7,7.8644215E6,9.16576E5,3.2879042E6,3.706564E6,1.070406E6,8.3670744E5,7.1411925E5,1.10379E6,0E0,2.0950276E6,2.5231805E6,6.234464E6,3.768616E6,2.530612E6,6.8788995E6,4.81824E5,0E0,8.6087625E4,4.479716E6,2.099489E6,4.4734E5,2.790025E5,1.450336E6,6.3327906E5,5.2391712E5,0E0,0E0,1.304143E6,3.334415E5,4.613198E5,2.8602858E6,5.1423188E5,1.904319E6,2.769656E6,1.0434E6,3.358196E6,4.307724E6,7.02262E5,5.307917E6,5.104307E6,2.9838065E6,0E0,0E0,0E0,0E0,0E0,0E0,0E0,0E0,0E0,0E0,0E0,0E0,0E0,0E0,0E0,0E0,0E0,0E0,0E0,0E0,0E0,0E0,0E0,0E0,0E0,0E0,0E0,0E0,0E0,0E0,0E0,0E0,0E0,0E0,0E0,0E0,0E0,0E0,0E0,0E0,0E0,0E0,0E0,0E0,0E0,0E0],"parents":[2147483647,0,0,1,1,2,2,3,3,4,4,5,5,6,6,8,8,9,9,10,10,11,11,12,12,13,13,14,14,15,15,16,16,17,17,18,18,19,19,20,20,21,21,23,23,24,24,25,25,26,26,27,27,28,28,29,29,31,31,32,32,33,33,34,34,35,35,36,36,37,37,38,38,41,41,42,42,43,43,44,44,45,45,46,46,47,47,48,48,49,49,50,50,51,51,52,52,53,53,54,54],"right_children":[2,4,6,8,10,12,14,-1,16,18,20,22,24,26,28,30,32,34,36,38,40,42,-1,44,46,48,50,52,54,56,-1,58,60,62,64,66,68,70,72,-1,-1,74,76,78,80,82,84,86,88,90,92,94,96,98,100,-1,-1,-1,-1,-1,-1,-1,-1,-1,-1,-1,-1,-1,-1,-1,-1,-1,-1,-1,-1,-1,-1,-1,-1,-1,-1,-1,-1,-1,-1,-1,-1,-1,-1,-1,-1,-1,-1,-1,-1,-1,-1,-1,-1,-1,-1],"split_conditions":[7.5E-1,5.6E-1,9.77E-1,2.9E-1,6.9975E2,8.59E-1,1.1793E2,-1.5124986E2,1.4254E2,6.7E-1,1.56978E3,5.01198E3,2.6508E2,1.353E0,1.31E0,1.062E0,3E-1,2.13426E1,6.78E-1,2.71E0,3.4E-2,8.3E-1,-2.2910344E2,9.6E-1,9.4E-1,1.13E0,1.49E0,1.03E0,2.14E-1,9.4E0,-8.1089115E0,7.8384E0,1.35382E1,1.18002E1,1.137E-1,2.54187E2,7E-1,1.04E0,7.8E-1,6.1769533E0,-8.071059E1,1.28E-1,1.21E-1,9.4E-1,1.57E-1,2.79E-1,1.94E-1,4.07E-1,2.9E-1,6.44E-1,1.7E0,1.06E0,5.481E1,6.09E2,1.584E2,-1.13459526E2,-1.9309132E1,4.1040886E1,8.430924E0,-1.2403666E2,-9.428095E0,-7.792577E1,-1.9185722E1,-5.5646053E1,-8.9265686E1,-2.419677E1,1.836482E1,-7.515274E1,-4.4033627E1,-6.2819996E1,2.0436157E1,6.232121E0,5.0049274E1,-6.4727983E0,-2.5985136E1,1.0567423E-1,-1.3366267E1,4.6750984E0,1.685517E1,-2.5650843E1,7.677485E0,6.2886376E0,-4.5607533E0,2.8151854E1,1.1505034E1,3.3093052E1,1.5817227E1,5.3184174E1,4.0355934E1,8.651416E1,4.4539814E1,7.8568695E1,1.7185313E2,2.5680311E1,4.92018E1,2.9566263E1,-1.6772484E1,-1.9255165E1,9.604154E1,1.2810132E2,1.4595337E0],"split_indices":[4,4,4,4,2,4,5,0,5,4,2,2,2,4,4,1,3,2,4,5,3,4,0,4,4,4,1,3,1,3,0,2,2,2,1,2,4,1,1,0,0,3,1,4,1,1,1,1,1,3,4,4,2,2,2,0,0,0,0,0,0,0,0,0,0,0,0,0,0,0,0,0,0,0,0,0,0,0,0,0,0,0,0,0,0,0,0,0,0,0,0,0,0,0,0,0,0,0,0,0,0],"split_type":[0,0,0,0,0,0,0,0,0,0,0,0,0,0,0,0,0,0,0,0,0,0,0,0,0,0,0,0,0,0,0,0,0,0,0,0,0,0,0,0,0,0,0,0,0,0,0,0,0,0,0,0,0,0,0,0,0,0,0,0,0,0,0,0,0,0,0,0,0,0,0,0,0,0,0,0,0,0,0,0,0,0,0,0,0,0,0,0,0,0,0,0,0,0,0,0,0,0,0,0,0],"sum_hessian":[2.842E3,4.68E2,2.374E3,2.24E2,2.44E2,1.132E3,1.242E3,5.7E1,1.67E2,2.26E2,1.8E1,3.62E2,7.7E2,9.48E2,2.94E2,1.5E2,1.7E1,1.14E2,1.12E2,1.3E1,5E0,3.61E2,1E0,2.68E2,5.02E2,8.36E2,1.12E2,1.77E2,1.17E2,1.49E2,1E0,4E0,1.3E1,2.7E1,8.7E1,1.4E1,9.8E1,2E0,1.1E1,1E0,4E0,2.48E2,1.13E2,1.66E2,1.02E2,1.91E2,3.11E2,5.3E2,3.06E2,8.4E1,2.8E1,6.3E1,1.14E2,1.1E2,7E0,1.48E2,1E0,2E0,2E0,6E0,7E0,9E0,1.8E1,1.1E1,7.6E1,1.3E1,1E0,2.2E1,7.6E1,1E0,1E0,5E0,6E0,4.2E1,2.06E2,2.3E1,9E1,1.25E2,4.1E1,5.5E1,4.7E1,1.25E2,6.6E1,1.04E2,2.07E2,4.06E2,1.24E2,1.59E2,1.47E2,4E1,4.4E1,2E1,8E0,2.5E1,3.8E1,7.9E1,3.5E1,1.07E2,3E0,4E0,3E0],"tree_param":{"num_deleted":"0","num_feature":"8","num_nodes":"101","size_leaf_vector":"1"}},{"base_weights":[8.56105E0,-9.206581E2,1.3333434E2,-1.2986283E3,-7.7308777E2,-1.9898413E2,2.2737317E2,-1.9389143E2,-1.2080226E3,-8.1022375E2,-1.4470273E2,-2.1259494E2,1.0909115E3,9.961542E1,3.2510217E2,-1.24843666E2,-3.1170996E2,-8.7606213E2,-6.3035913E2,-4.0521906E2,3.1360825E2,-2.0510783E2,-2.1764827E2,-1.10435646E2,3.548824E2,1.983882E1,1.758861E2,4.1022696E2,7.485946E1,-9.047663E1,3.8524967E1,3.043418E1,-8.849528E2,-4.4710858E2,-7.1797894E2,-5.597394E2,1.4190821E1,4.567046E1,1.8277018E1,-3.905157E2,-1.4370259E2,3.150057E1,-4.990651E2,3.1088875E1,-1.1579391E3,6.0606846E1,2.1343019E2,3.6282272E2,8.236734E2,1.8089323E2,-3.0165466E2,-9.1547195E1,-4.1445873E1,-9.890821E1,-2.5242702E1,-1.2279297E1,-7.440175E1,1.0260303E1,-6.6901726E1,-1.24755865E-2,2.7540283E0,-1.8964062E0,-4.3265194E1,-1.5381663E1,1.8244272E1,-1.3973877E1,-6.088589E1,-3.2875663E-1,1.5256312E1,1.9018522E1,-2.601156E2,4.589376E0,2.6844126E1,2.3523222E1,7.3712616E0,2.8773361E1,4.4736073E1,7.309532E1,1.7524199E2,1.2100072E1,4.603605E1,-3.622758E1,6.8307594E1],"categories":[],"categories_nodes":[],"categories_segments":[],"categories_sizes":[],"default_left":[0,0,0,0,0,0,0,0,0,0,0,0,0,0,0,0,0,0,0,0,0,0,0,0,0,0,0,0,0,0,0,0,0,0,0,0,0,0,0,0,0,0,0,0,0,0,0,0,0,0,0,0,0,0,0,0,0,0,0,0,0,0,0,0,0,0,0,0,0,0,0,0,0,0,0,0,0,0,0,0,0,0,0],"id":5,"left_children":[1,3,5,7,9,11,13,-1,15,17,19,21,23,25,27,-1,29,31,33,35,37,39,-1,41,-1,43,45,47,49,-1,-1,-1,51,53,55,57,-1,-1,59,61,63,-1,65,67,69,71,73,75,77,79,81,-1,-1,-1,-1,-1,-1,-1,-1,-1,-1,-1,-1,-1,-1,-1,-1,-1,-1,-1,-1,-1,-1,-1,-1,-1,-1,-1,-1,-1,-1,-1,-1],"loss_changes":[3.3299142E8,1.7960288E7,7.917238E7,3.111024E6,5.646688E6,1.0046022E7,2.4614264E7,0E0,2.689864E6,2.206928E6,1.9180422E6,7.699514E6,1.8108752E7,5.211026E6,2.378476E7,0E0,2.4152425E6,2.032424E6,7.38708E5,9.248545E5,2.4521769E5,6.239794E6,0E0,9.839036E5,0E0,5.6010265E6,1.882754E6,1.6046816E7,1.1432683E7,0E0,0E0,0E0,2.018528E6,2.282623E6,5.75042E5,6.476785E5,0E0,0E0,5.148174E2,2.136638E6,1.403598E6,0E0,3.327425E4,1.741832E6,8.2772445E6,3.2098978E5,9.87882E5,4.632192E6,6.03872E6,3.6768695E6,4.008277E6,0E0,0E0,0E0,0E0,0E0,0E0,0E0,0E0,0E0,0E0,0E0,0E0,0E0,0E0,0E0,0E0,0E0,0E0,0E0,0E0,0E0,0E0,0E0,0E0,0E0,0E0,0E0,0E0,0E0,0E0,0E0,0E0],"parents":[2147483647,0,0,1,1,2,2,3,3,4,4,5,5,6,6,8,8,9,9,10,10,11,11,12,12,13,13,14,14,16,16,17,17,18,18,19,19,20,20,21,21,23,23,25,25,26,26,27,27,28,28,32,32,33,33,34,34,35,35,38,38,39,39,40,40,42,42,43,43,44,44,45,45,46,46,47,47,48,48,49,49,50,50],"right_children":[2,4,6,8,10,12,14,-1,16,18,20,22,24,26,28,-1,30,32,34,36,38,40,-1,42,-1,44,46,48,50,-1,-1,-1,52,54,56,58,-1,-1,60,62,64,-1,66,68,70,72,74,76,78,80,82,-1,-1,-1,-1,-1,-1,-1,-1,-1,-1,-1,-1,-1,-1,-1,-1,-1,-1,-1,-1,-1,-1,-1,-1,-1,-1,-1,-1,-1,-1,-1,-1],"split_conditions":[6.7E-1,4E-1,8.8E-1,1.2E-1,8.3544E-1,8.900753E0,1.01E0,-1.9389143E2,4.406E2,6.04E-1,6.9975E2,5.01198E3,3.703E2,2.02E3,4.778535E0,-1.24843666E2,1.091264E-2,1.53E1,4.23444E1,4.6887755E0,1.219E3,7.6E-1,-2.1764827E2,1.453E2,3.548824E2,1.4E0,9.4E-1,1.42E0,1.52E0,-9.047663E1,3.8524967E1,3.043418E1,1.296E3,1.18002E1,9.1E-2,4.2E-1,1.4190821E1,4.567046E1,3.68E-1,6.78E-1,3.59E3,3.150057E1,1.699E2,9.67E-1,9.67E-1,4.16E3,3.48E-1,1.13E0,1.77E0,2.14E-1,1.66E3,-9.1547195E1,-4.1445873E1,-9.890821E1,-2.5242702E1,-1.2279297E1,-7.440175E1,1.0260303E1,-6.6901726E1,-1.24755865E-2,2.7540283E0,-1.8964062E0,-4.3265194E1,-1.5381663E1,1.8244272E1,-1.3973877E1,-6.088589E1,-3.2875663E-1,1.5256312E1,1.9018522E1,-2.601156E2,4.589376E0,2.6844126E1,2.3523222E1,7.3712616E0,2.8773361E1,4.4736073E1,7.309532E1,1.7524199E2,1.2100072E1,4.603605E1,-3.622758E1,6.8307594E1],"split_indices":[4,4,4,4,6,7,4,0,0,4,2,2,0,0,7,0,6,0,2,7,0,4,0,0,0,1,4,4,4,0,0,0,0,2,1,4,0,0,1,4,0,0,0,4,4,0,1,4,1,1,0,0,0,0,0,0,0,0,0,0,0,0,0,0,0,0,0,0,0,0,0,0,0,0,0,0,0,0,0,0,0,0,0],"split_type":[0,0,0,0,0,0,0,0,0,0,0,0,0,0,0,0,0,0,0,0,0,0,0,0,0,0,0,0,0,0,0,0,0,0,0,0,0,0,0,0,0,0,0,0,0,0,0,0,0,0,0,0,0,0,0,0,0,0,0,0,0,0,0,0,0,0,0,0,0,0,0,0,0,0,0,0,0,0,0,0,0,0,0],"sum_hessian":[2.87E3,3.39E2,2.531E3,9.3E1,2.46E2,5.58E2,1.973E3,9E0,8.4E1,2.32E2,1.4E1,5.53E2,5E0,8.56E2,1.117E3,8E1,4E0,1.67E2,6.5E1,9E0,5E0,5.52E2,1E0,4E0,1E0,4.19E2,4.37E2,8.33E2,2.84E2,2E0,2E0,1E0,1.66E2,2.3E1,4.2E1,7E0,2E0,3E0,2E0,1.36E2,4.16E2,2E0,2E0,4.16E2,3E0,1.08E2,3.29E2,7.49E2,8.4E1,2.22E2,6.2E1,1.55E2,1.1E1,5E0,1.8E1,2E0,4E1,1E0,6E0,1E0,1E0,1.4E1,1.22E2,4.04E2,1.2E1,1E0,1E0,3.25E2,9.1E1,2E0,1E0,1.02E2,6E0,2.84E2,4.5E1,3.99E2,3.5E2,7.8E1,6E0,1.84E2,3.8E1,5.9E1,3E0],"tree_param":{"num_deleted":"0","num_feature":"8","num_nodes":"83","size_leaf_vector":"1"}},{"base_weights":[1.4418445E0,-8.323581E2,1.1702411E2,-1.1813412E3,-7.105709E2,-1.1616E2,2.161138E2,-1.7711227E2,-1.0917317E3,-7.350045E2,4.980664E1,-1.2546163E2,1.285573E3,2.0119814E2,7.304031E2,-1.1504211E3,-4.2706006E2,-8.4480664E2,-6.32828E2,-4.8442898E1,1.7713971E2,-2.4680682E2,-5.08136E0,-7.87251E1,3.3713828E2,2.1617523E2,-2.1277687E2,5.3772186E2,1.6506792E3,-5.3577655E2,-1.1786977E2,4.6537598E1,-7.205262E2,-8.8226434E2,1.7819092E1,-3.8262744E2,-7.0441626E2,4.9200962E1,5.3635548E1,-3.3451358E2,-1.9234703E2,1.6192268E0,-4.1520377E2,2.806439E1,-5.7841602E1,1.10798065E2,2.9257626E2,-3.6610278E2,5.904631E2,3.9267767E2,9.6259546E2,1.040683E2,2.3204454E2,-8.853921E1,4.3134277E1,3.3265236E1,-1.5971809E1,-9.546612E1,1.0800684E1,-1.0241292E2,-7.635729E1,-7.570666E1,-1.5044187E1,-7.1769775E1,-2.2466798E0,-1.4998584E1,1.073964E1,-3.605164E1,8.402919E0,-2.5605442E1,-1.395798E1,-4.477389E0,4.4379444E0,-1.26178875E1,-5.281715E1,1.1826984E1,-1.2057837E2,3.4117058E1,5.8433986E0,-2.9254532E1,-2.0219884E2,7.807E1,-5.6083473E1,4.0021904E1,7.5677004E0,1.1217315E2,2.1736752E1],"categories":[],"categories_nodes":[],"categories_segments":[],"categories_sizes":[],"default_left":[0,0,0,0,0,0,0,0,0,0,0,0,0,0,0,0,0,0,0,0,0,0,0,0,0,0,0,0,0,0,0,0,0,0,0,0,0,0,0,0,0,0,0,0,0,0,0,0,0,0,0,0,0,0,0,0,0,0,0,0,0,0,0,0,0,0,0,0,0,0,0,0,0,0,0,0,0,0,0,0,0,0,0,0,0,0,0],"id":6,"left_children":[1,3,5,7,9,11,13,-1,15,17,19,21,23,25,27,29,31,33,35,-1,37,39,41,43,-1,45,47,49,51,53,-1,55,57,59,-1,61,63,65,-1,67,69,71,73,-1,-1,75,77,79,81,83,85,-1,-1,-1,-1,-1,-1,-1,-1,-1,-1,-1,-1,-1,-1,-1,-1,-1,-1,-1,-1,-1,-1,-1,-1,-1,-1,-1,-1,-1,-1,-1,-1,-1,-1,-1,-1],"loss_changes":[2.7389165E8,1.3866144E7,5.7698028E7,2.717216E6,4.848496E6,9.874894E6,1.3292584E7,0E0,2.590432E6,2.281408E6,6.980443E5,1.0822953E7,1.4493741E7,1.0611032E7,7.801072E6,6.19832E5,1.1454104E6,4.678864E6,2.130596E6,0E0,3.412717E5,1.698182E6,1.025699E6,8.8062256E5,0E0,1.321136E7,7.60562E6,2.210279E6,8.53592E5,2.0725071E6,0E0,2.8918178E5,1.0730528E6,1.137552E6,0E0,2.6681655E6,9.16784E5,9.725028E4,0E0,1.553955E6,7.37442E5,7.3201794E5,1.2925894E5,0E0,0E0,6.959795E6,1.0823272E7,5.620417E6,2.6280375E6,4.8603E4,9.42099E5,0E0,0E0,0E0,0E0,0E0,0E0,0E0,0E0,0E0,0E0,0E0,0E0,0E0,0E0,0E0,0E0,0E0,0E0,0E0,0E0,0E0,0E0,0E0,0E0,0E0,0E0,0E0,0E0,0E0,0E0,0E0,0E0,0E0,0E0,0E0,0E0],"parents":[2147483647,0,0,1,1,2,2,3,3,4,4,5,5,6,6,8,8,9,9,10,10,11,11,12,12,13,13,14,14,15,15,16,16,17,17,18,18,20,20,21,21,22,22,23,23,25,25,26,26,27,27,28,28,29,29,31,31,32,32,33,33,35,35,36,36,37,37,39,39,40,40,41,41,42,42,45,45,46,46,47,47,48,48,49,49,50,50],"right_children":[2,4,6,8,10,12,14,-1,16,18,20,22,24,26,28,30,32,34,36,-1,38,40,42,44,-1,46,48,50,52,54,-1,56,58,60,-1,62,64,66,-1,68,70,72,74,-1,-1,76,78,80,82,84,86,-1,-1,-1,-1,-1,-1,-1,-1,-1,-1,-1,-1,-1,-1,-1,-1,-1,-1,-1,-1,-1,-1,-1,-1,-1,-1,-1,-1,-1,-1,-1,-1,-1,-1,-1,-1],"split_conditions":[6.7E-1,4E-1,9.3E-1,1.2E-1,1.74384E0,8.900753E0,1.49E0,-1.7711227E2,5.4232745E0,5.6E-1,2.7E0,8.3E-1,7.92573E1,1.7E0,2.6838E0,9.1E-2,6.285253E0,6.6048E2,2.13426E1,-4.8442898E1,4.39E-1,7.6E-1,6.1E0,3.09386E1,3.3713828E2,1.02E0,5.355E2,1.59E0,1.77E0,8.9E-2,-1.1786977E2,7.8384E0,9.0312E0,2.75196E1,1.7819092E1,1.18002E1,1.08288E0,2.1296E0,5.3635548E1,7.2875E2,2.2731562E0,8.8E-1,2.3095608E0,2.806439E1,-5.7841602E1,1.4E0,5.789348E0,8.167919E0,7.27E0,1.8779372E0,1.9648E3,1.040683E2,2.3204454E2,-8.853921E1,4.3134277E1,3.3265236E1,-1.5971809E1,-9.546612E1,1.0800684E1,-1.0241292E2,-7.635729E1,-7.570666E1,-1.5044187E1,-7.1769775E1,-2.2466798E0,-1.4998584E1,1.073964E1,-3.605164E1,8.402919E0,-2.5605442E1,-1.395798E1,-4.477389E0,4.4379444E0,-1.26178875E1,-5.281715E1,1.1826984E1,-1.2057837E2,3.4117058E1,5.8433986E0,-2.9254532E1,-2.0219884E2,7.807E1,-5.6083473E1,4.0021904E1,7.5677004E0,1.1217315E2,2.1736752E1],"split_indices":[4,4,4,4,6,7,1,0,7,4,3,4,2,4,6,1,7,2,2,0,1,4,3,2,0,4,2,4,1,1,0,2,2,2,0,2,6,6,0,2,7,4,7,0,0,1,7,7,3,7,2,0,0,0,0,0,0,0,0,0,0,0,0,0,0,0,0,0,0,0,0,0,0,0,0,0,0,0,0,0,0,0,0,0,0,0,0],"split_type":[0,0,0,0,0,0,0,0,0,0,0,0,0,0,0,0,0,0,0,0,0,0,0,0,0,0,0,0,0,0,0,0,0,0,0,0,0,0,0,0,0,0,0,0,0,0,0,0,0,0,0,0,0,0,0,0,0,0,0,0,0,0,0,0,0,0,0,0,0,0,0,0,0,0,0,0,0,0,0,0,0,0,0,0,0,0,0],"sum_hessian":[2.84E3,3.45E2,2.495E3,8.7E1,2.58E2,7.44E2,1.751E3,9E0,7.8E1,2.5E2,8E0,7.4E2,4E0,1.703E3,4.8E1,7.1E1,7E0,1.17E2,1.33E2,1E0,7E0,3.68E2,3.72E2,3E0,1E0,1.644E3,5.9E1,4.1E1,7E0,4E0,6.7E1,3E0,4E0,1.13E2,4E0,3.1E1,1.02E2,6E0,1E0,1.39E2,2.29E2,3.67E2,5E0,2E0,1E0,6.92E2,9.52E2,5E1,9E0,3.2E1,9E0,5E0,2E0,3E0,1E0,1E0,2E0,3E0,1E0,4.8E1,6.5E1,1.1E1,2E1,1E2,2E0,1E0,5E0,1.31E2,8E0,1.02E2,1.27E2,1.76E2,1.91E2,2E0,3E0,6.89E2,3E0,7.88E2,1.64E2,4.9E1,1E0,8E0,1E0,3.1E1,1E0,7E0,2E0],"tree_param":{"num_deleted":"0","num_feature":"8","num_nodes":"87","size_leaf_vector":"1"}},{"base_weights":[7.7943563E-1,-6.0896857E2,1.3972552E2,-8.8282495E2,-3.9004553E2,2.2584206E1,2.700738E2,-1.273674E3,-8.0375415E2,-4.1282184E2,1.3872202E3,-9.663959E1,8.97984E1,3.2612146E2,6.4058914E1,-1.1425946E2,-1.9102791E2,-8.42208E2,-1.3433093E2,-5.4573553E2,-3.3867685E2,-2.8558203E2,3.2028134E2,-1.0596615E2,2.214405E2,5.1293194E1,2.1008543E2,2.8922873E2,6.312442E2,2.671618E2,-1.4827109E2,-9.899752E2,-7.7201904E2,-3.769099E2,2.8066162E2,-6.283516E2,-2.2746349E2,2.1155676E1,-3.4853006E2,1.2112207E1,-5.4949512E1,-1.4189827E2,-4.4379593E1,3.2469498E2,-5.0880665E1,6.431605E1,-8.4080315E1,1.4592052E2,2.4127153E2,2.3539102E2,3.5371585E2,7.25882E2,9.073568E1,2.3835493E2,1.0573755E2,-1.1643052E2,-1.920889E2,-8.996377E1,-1.2859653E2,4.726553E1,-7.851284E1,-5.497663E1,9.443946E0,3.508784E1,1.16890955E1,-6.4869026E1,5.0953762E1,-1.6009034E0,-4.1996265E1,-5.5878796E1,-3.1307133E1,1.9805664E1,-1.4768964E1,-1.9396181E1,-2.993006E0,1.4269022E1,4.8291805E1,4.0971656E0,1.4616513E1,-2.4108092E2,7.0261794E-1,1.5579169E1,-1.10014E1,3.3874737E1,2.164572E1,1.0035951E1,2.8663168E1,-4.5333805E1,3.5962284E1,6.4682274E1,1.4466605E2,3.4126205E1,-3.4193092E1,2.6422861E1,-2.9297062E1,3.1314615E1,-1.8332949E1],"categories":[],"categories_nodes":[],"categories_segments":[],"categories_sizes":[],"default_left":[0,0,0,0,0,0,0,0,0,0,0,0,0,0,0,0,0,0,0,0,0,0,0,0,0,0,0,0,0,0,0,0,0,0,0,0,0,0,0,0,0,0,0,0,0,0,0,0,0,0,0,0,0,0,0,0,0,0,0,0,0,0,0,0,0,0,0,0,0,0,0,0,0,0,0,0,0,0,0,0,0,0,0,0,0,0,0,0,0,0,0,0,0,0,0,0,0],"id":7,"left_children":[1,3,5,7,9,11,13,15,17,19,21,23,25,27,29,-1,-1,31,33,35,37,39,-1,41,43,45,47,49,51,53,55,57,59,61,63,65,67,-1,69,-1,-1,71,73,75,-1,77,79,81,83,85,87,89,91,93,-1,95,-1,-1,-1,-1,-1,-1,-1,-1,-1,-1,-1,-1,-1,-1,-1,-1,-1,-1,-1,-1,-1,-1,-1,-1,-1,-1,-1,-1,-1,-1,-1,-1,-1,-1,-1,-1,-1,-1,-1,-1,-1],"loss_changes":[2.4332224E8,3.1610848E7,3.570849E7,6.269808E6,1.2635592E7,9.889363E6,1.2761248E7,9.88264E5,5.009504E6,2.72236E6,1.306318E7,1.3435992E6,3.6436175E6,9.610848E6,1.0303324E7,0E0,0E0,1.185584E6,1.3138058E6,2.59169E6,1.114676E6,3.8855956E5,0E0,9.51904E5,1.1454238E6,1.0614148E6,3.46994E5,2.617832E6,4.691324E6,2.525125E6,6.379967E6,3.67224E5,2.52492E6,7.037254E5,1.648275E4,2.228264E6,9.294874E5,0E0,1.234146E6,0E0,0E0,5.66733E5,3.42179E5,2.766605E5,0E0,1.03917375E6,1.1251885E7,1.813535E5,2.338635E5,2.92569E6,1.841108E6,3.56602E6,1.7426039E6,1.7133455E6,0E0,3.3910445E6,0E0,0E0,0E0,0E0,0E0,0E0,0E0,0E0,0E0,0E0,0E0,0E0,0E0,0E0,0E0,0E0,0E0,0E0,0E0,0E0,0E0,0E0,0E0,0E0,0E0,0E0,0E0,0E0,0E0,0E0,0E0,0E0,0E0,0E0,0E0,0E0,0E0,0E0,0E0,0E0,0E0],"parents":[2147483647,0,0,1,1,2,2,3,3,4,4,5,5,6,6,7,7,8,8,9,9,10,10,11,11,12,12,13,13,14,14,17,17,18,18,19,19,20,20,21,21,23,23,24,24,25,25,26,26,27,27,28,28,29,29,30,30,31,31,32,32,33,33,34,34,35,35,36,36,38,38,41,41,42,42,43,43,45,45,46,46,47,47,48,48,49,49,50,50,51,51,52,52,53,53,55,55],"right_children":[2,4,6,8,10,12,14,16,18,20,22,24,26,28,30,-1,-1,32,34,36,38,40,-1,42,44,46,48,50,52,54,56,58,60,62,64,66,68,-1,70,-1,-1,72,74,76,-1,78,80,82,84,86,88,90,92,94,-1,96,-1,-1,-1,-1,-1,-1,-1,-1,-1,-1,-1,-1,-1,-1,-1,-1,-1,-1,-1,-1,-1,-1,-1,-1,-1,-1,-1,-1,-1,-1,-1,-1,-1,-1,-1,-1,-1,-1,-1,-1,-1],"split_conditions":[7.7E-1,5.6E-1,1.01E0,1.977E-1,7.3365E3,8.9E-1,2.588E2,6.44E-1,1.27E3,6.5E-1,3.703E2,3.64E3,3.13E3,1.405E0,2.22E2,-1.1425946E2,-1.9102791E2,5.22E1,6.44E-1,3.324E1,2.62E1,5.6E1,3.2028134E2,8.5E-1,4.3E3,7.22709E-1,9.6E-1,1.13E0,2.543E1,5.404777E0,1.1613E4,4.5E1,5.6E1,2.81E3,1.35E3,4.3E0,4.75E-1,2.1155676E1,9.56E1,1.2112207E1,-5.4949512E1,1.21E1,1.76E0,3.8E3,-5.0880665E1,9.7E-1,5.14E-1,5.751E-1,3.41E3,1.2E3,5.1E-1,1.87E0,1.87E0,2.1E0,1.0573755E2,8.5E-1,-1.920889E2,-8.996377E1,-1.2859653E2,4.726553E1,-7.851284E1,-5.497663E1,9.443946E0,3.508784E1,1.16890955E1,-6.4869026E1,5.0953762E1,-1.6009034E0,-4.1996265E1,-5.5878796E1,-3.1307133E1,1.9805664E1,-1.4768964E1,-1.9396181E1,-2.993006E0,1.4269022E1,4.8291805E1,4.0971656E0,1.4616513E1,-2.4108092E2,7.0261794E-1,1.5579169E1,-1.10014E1,3.3874737E1,2.164572E1,1.0035951E1,2.8663168E1,-4.5333805E1,3.5962284E1,6.4682274E1,1.4466605E2,3.4126205E1,-3.4193092E1,2.6422861E1,-2.9297062E1,3.1314615E1,-1.8332949E1],"split_indices":[4,4,4,4,5,4,5,3,0,4,0,0,0,4,0,0,0,0,3,5,0,0,0,4,0,6,4,4,5,6,5,0,0,0,0,3,3,0,0,0,0,0,5,0,0,4,3,6,0,0,5,4,4,4,0,3,0,0,0,0,0,0,0,0,0,0,0,0,0,0,0,0,0,0,0,0,0,0,0,0,0,0,0,0,0,0,0,0,0,0,0,0,0,0,0,0,0],"split_type":[0,0,0,0,0,0,0,0,0,0,0,0,0,0,0,0,0,0,0,0,0,0,0,0,0,0,0,0,0,0,0,0,0,0,0,0,0,0,0,0,0,0,0,0,0,0,0,0,0,0,0,0,0,0,0,0,0,0,0,0,0,0,0,0,0,0,0,0,0,0,0,0,0,0,0,0,0,0,0,0,0,0,0,0,0,0,0,0,0,0,0,0,0,0,0,0,0],"sum_hessian":[2.87E3,5.32E2,2.338E3,2.35E2,2.97E2,1.232E3,1.106E3,3.7E1,1.98E2,2.94E2,3E0,4.44E2,7.88E2,8.69E2,2.37E2,3.3E1,4E0,1.87E2,1.1E1,1.03E2,1.91E2,2E0,1E0,4.32E2,1.2E1,5.98E2,1.9E2,7.77E2,9.2E1,1.21E2,1.16E2,5.6E1,1.31E2,7E0,4E0,8.1E1,2.2E1,3E0,1.88E2,1E0,1E0,2.72E2,1.6E2,1.1E1,1E0,5.46E2,5.2E1,6.4E1,1.26E2,4.26E2,3.51E2,7.8E1,1.4E1,1.18E2,3E0,1.15E2,1E0,4.6E1,1E1,1E0,1.3E2,5E0,2E0,2E0,2E0,8E1,1E0,1.1E1,1.1E1,2.5E1,1.63E2,4E0,2.68E2,1.3E1,1.47E2,6E0,5E0,4.26E2,1.2E2,1E0,5.1E1,6.2E1,2E0,2.3E1,1.03E2,1.18E2,3.08E2,2E0,3.49E2,7.2E1,6E0,9E0,5E0,1.13E2,5E0,1.5E1,1E2],"tree_param":{"num_deleted":"0","num_feature":"8","num_nodes":"97","size_leaf_vector":"1"}},{"base_weights":[-9.6617544E-1,-6.7097516E2,9.490323E1,-9.7174634E2,-5.5820795E2,-1.418746E2,1.6240067E2,-9.840123E2,9.676196E0,-5.78919E2,8.832748E1,-1.3461215E2,-2.0790018E2,7.211301E1,2.3015315E2,-1.1632345E2,-9.033868E2,-6.4955383E2,-4.2283676E2,-4.2777294E1,2.0631165E2,-1.4688795E2,8.438834E2,7.945633E0,1.3151987E2,3.0050415E2,4.1167213E1,-9.325572E1,-1.8893591E2,-7.36859E2,-4.8934875E2,7.652545E1,-4.7046423E2,9.748165E1,4.840608E1,-2.6380685E2,-8.392324E1,-2.9693604E1,3.042673E2,1.7853966E1,-9.82397E2,4.985182E1,1.558951E2,2.692773E2,7.3153644E2,1.5469301E2,-1.3716702E2,3.610017E1,-4.9258236E1,-2.1763022E0,-7.4990005E1,-2.367682E1,-5.9877705E1,-2.561525E1,2.3011019E1,-4.823588E1,2.0486622E1,-6.2043295E0,1.737003E1,1.9568995E1,-2.7218018E1,-1.4227622E1,-2.4443128E0,2.64693E1,-4.123112E1,-1.2360471E1,3.847442E0,-2.2902686E2,2.1698309E1,2.8895397E0,2.3766577E1,1.596762E1,-3.1325148E1,2.1215006E1,3.3203533E1,5.9758423E1,1.2611675E2,2.6340952E1,6.1667314E0,-1.7959799E1,6.848104E1],"categories":[],"categories_nodes":[],"categories_segments":[],"categories_sizes":[],"default_left":[0,0,0,0,0,0,0,0,0,0,0,0,0,0,0,0,0,0,0,0,0,0,0,0,0,0,0,0,0,0,0,0,0,0,0,0,0,0,0,0,0,0,0,0,0,0,0,0,0,0,0,0,0,0,0,0,0,0,0,0,0,0,0,0,0,0,0,0,0,0,0,0,0,0,0,0,0,0,0,0,0],"id":8,"left_children":[1,3,5,7,9,11,13,15,-1,17,19,21,-1,23,25,-1,27,29,31,-1,33,35,37,39,41,43,45,-1,47,49,51,53,55,57,-1,59,61,63,-1,65,67,69,71,73,75,77,79,-1,-1,-1,-1,-1,-1,-1,-1,-1,-1,-1,-1,-1,-1,-1,-1,-1,-1,-1,-1,-1,-1,-1,-1,-1,-1,-1,-1,-1,-1,-1,-1,-1,-1],"loss_changes":[1.83193E8,1.1565984E7,3.9897868E7,1.353424E6,3.559424E6,7.513962E6,1.1863028E7,3.21888E5,0E0,2.525656E6,6.362797E5,6.766485E6,0E0,3.1781475E6,1.4732164E7,0E0,1.282668E6,2.059128E6,1.986238E6,0E0,1.946324E5,4.004746E6,1.3536031E7,3.9622225E6,8.54192E5,1.0678512E7,6.1353705E6,0E0,8.457695E5,1.009488E6,1.627152E6,4.6769734E5,7.01275E5,9.588837E4,0E0,7.88136E5,1.2356128E6,7.849609E5,0E0,1.1686154E6,6.77149E6,3.9065938E5,6.407235E5,2.63638E6,3.077388E6,1.8547405E6,4.23851E6,0E0,0E0,0E0,0E0,0E0,0E0,0E0,0E0,0E0,0E0,0E0,0E0,0E0,0E0,0E0,0E0,0E0,0E0,0E0,0E0,0E0,0E0,0E0,0E0,0E0,0E0,0E0,0E0,0E0,0E0,0E0,0E0,0E0,0E0],"parents":[2147483647,0,0,1,1,2,2,3,3,4,4,5,5,6,6,7,7,9,9,10,10,11,11,13,13,14,14,16,16,17,17,18,18,20,20,21,21,22,22,23,23,24,24,25,25,26,26,28,28,29,29,30,30,31,31,32,32,33,33,35,35,36,36,37,37,39,39,40,40,41,41,42,42,43,43,44,44,45,45,46,46],"right_children":[2,4,6,8,10,12,14,16,-1,18,20,22,-1,24,26,-1,28,30,32,-1,34,36,38,40,42,44,46,-1,48,50,52,54,56,58,-1,60,62,64,-1,66,68,70,72,74,76,78,80,-1,-1,-1,-1,-1,-1,-1,-1,-1,-1,-1,-1,-1,-1,-1,-1,-1,-1,-1,-1,-1,-1,-1,-1,-1,-1,-1,-1,-1,-1,-1,-1,-1,-1],"split_conditions":[6.7E-1,4E-1,8.8E-1,3.23E3,1.74384E0,1.046273E1,1.01E0,1.6E-1,9.676196E0,8.35E2,2.7E0,8.900753E0,-2.0790018E2,1.92E3,4.462915E0,-1.1632345E2,5.4232745E0,5.8E-1,5.2E-1,-4.2777294E1,4.39E-1,7.8E-1,3.703E2,1.4E0,9.4E-1,1.48E0,1.32E0,-9.325572E1,3.9E1,1.53E1,9.56E1,1.64E-1,9.7E-1,1.002E1,4.840608E1,2.62E1,8.26E-1,1.453E2,3.042673E2,1.09E-1,5.14E-1,3.91E3,5.21E0,1.13E0,1.66E0,1.522E0,2.86E3,3.610017E1,-4.9258236E1,-2.1763022E0,-7.4990005E1,-2.367682E1,-5.9877705E1,-2.561525E1,2.3011019E1,-4.823588E1,2.0486622E1,-6.2043295E0,1.737003E1,1.9568995E1,-2.7218018E1,-1.4227622E1,-2.4443128E0,2.64693E1,-4.123112E1,-1.2360471E1,3.847442E0,-2.2902686E2,2.1698309E1,2.8895397E0,2.3766577E1,1.596762E1,-3.1325148E1,2.1215006E1,3.3203533E1,5.9758423E1,1.2611675E2,2.6340952E1,6.1667314E0,-1.7959799E1,6.848104E1],"split_indices":[4,4,4,0,6,6,4,4,0,0,3,7,0,0,7,0,7,4,4,0,1,4,0,1,4,4,4,0,0,0,0,1,1,3,0,0,4,0,0,1,3,0,3,4,1,3,0,0,0,0,0,0,0,0,0,0,0,0,0,0,0,0,0,0,0,0,0,0,0,0,0,0,0,0,0,0,0,0,0,0,0],"split_type":[0,0,0,0,0,0,0,0,0,0,0,0,0,0,0,0,0,0,0,0,0,0,0,0,0,0,0,0,0,0,0,0,0,0,0,0,0,0,0,0,0,0,0,0,0,0,0,0,0,0,0,0,0,0,0,0,0,0,0,0,0,0,0,0,0,0,0,0,0,0,0,0,0,0,0,0,0,0,0,0,0],"sum_hessian":[2.85E3,3.56E2,2.494E3,9.5E1,2.61E2,5.53E2,1.941E3,9.4E1,1E0,2.53E2,8E0,5.52E2,1E0,8.33E2,1.108E3,2.5E1,6.9E1,1.72E2,8.1E1,1E0,7E0,5.46E2,6E0,4.01E2,4.32E2,8.07E2,3.01E2,6.6E1,3E0,1.09E2,6.3E1,7E0,7.4E1,6E0,1E0,1.9E2,3.56E2,5E0,1E0,3.98E2,3E0,1E2,3.32E2,7.54E2,5.3E1,1.84E2,1.17E2,1E0,2E0,2E0,1.07E2,2E1,4.3E1,2E0,5E0,7.3E1,1E0,2E0,4E0,3E0,1.87E2,1.79E2,1.77E2,3E0,2E0,5E1,3.48E2,1E0,2E0,9.1E1,9E0,3.3E2,2E0,3.97E2,3.57E2,4.4E1,9E0,8.4E1,1E2,1.12E2,5E0],"tree_param":{"num_deleted":"0","num_feature":"8","num_nodes":"81","size_leaf_vector":"1"}},{"base_weights":[9.512627E0,-4.122316E2,4.9021954E1,-5.3335077E2,-2.1244554E2,-3.0281553E1,1.6011923E2,-6.518738E2,-3.8476758E2,-3.7885385E2,4.9654957E1,-6.847865E1,1.5767708E2,1.3963033E2,5.69168E2,-2.404659E2,-6.8118933E2,-2.2314757E2,-5.756841E2,-4.1430338E2,1.9442823E1,3.3024506E2,-9.823808E1,-1.00322266E2,1.8767921E2,1.711992E2,-1.5783212E2,9.0324905E1,2.1439626E2,3.9457703E2,1.4582727E3,-5.3939503E1,-1.007452E2,-7.030398E2,-2.303042E2,-2.828328E2,2.3927852E2,-4.2468756E2,-6.611434E2,1.0451102E1,-4.6761542E2,4.1073962E2,1.1930576E2,1.7399516E2,-2.62244E2,-1.373807E2,1.3972421E0,1.2546363E2,7.342138E2,-1.10712074E2,1.8118234E2,-5.544502E1,-6.2725292E1,5.059289E1,2.1126778E2,2.2585973E2,-7.524395E2,1.1441473E2,3.5053708E2,1.6107024E2,1.9563282E1,-2.647754E-1,-2.956162E1,-7.1249626E1,-2.4804363E1,-5.5966652E1,1.7582617E1,-4.0194626E1,-2.1036499E0,3.710179E1,2.7779624E0,1.1015137E0,-4.982226E1,-7.39475E1,-3.0958603E1,-1.2628845E1,1.4457788E1,-7.578422E1,-3.7129673E1,1.6752913E1,4.5629562E1,1.3604736E0,2.7105494E1,-9.909778E0,3.0519184E1,-4.164986E1,3.0464453E1,-2.568295E-1,-1.8216763E1,1.2724859E1,-3.620077E0,2.159844E1,-4.6763927E1,1.4594873E1,1.7639012E2,1.9725683E1,-1.738653E1,2.230173E1,1.3486163E1,-1.7930273E1,4.487679E0,6.001924E0,-2.1757552E2,1.0223672E1,3.2329693E1,2.2881077E1,-4.8022682E1,4.697644E0,-1.9750517E2,1.4238406E1,3.804434E1],"categories":[],"categories_nodes":[],"categories_segments":[],"categories_sizes":[],"default_left":[0,0,0,0,0,0,0,0,0,0,0,0,0,0,0,0,0,0,0,0,0,0,0,0,0,0,0,0,0,0,0,0,0,0,0,0,0,0,0,0,0,0,0,0,0,0,0,0,0,0,0,0,0,0,0,0,0,0,0,0,0,0,0,0,0,0,0,0,0,0,0,0,0,0,0,0,0,0,0,0,0,0,0,0,0,0,0,0,0,0,0,0,0,0,0,0,0,0,0,0,0,0,0,0,0,0,0,0,0,0,0],"id":9,"left_children":[1,3,5,7,9,11,13,15,17,19,21,23,25,27,29,31,33,35,37,39,-1,41,43,45,47,49,51,53,55,57,59,-1,61,63,65,67,69,71,73,75,77,79,81,83,85,87,89,91,93,95,97,-1,99,101,103,105,107,-1,109,-1,-1,-1,-1,-1,-1,-1,-1,-1,-1,-1,-1,-1,-1,-1,-1,-1,-1,-1,-1,-1,-1,-1,-1,-1,-1,-1,-1,-1,-1,-1,-1,-1,-1,-1,-1,-1,-1,-1,-1,-1,-1,-1,-1,-1,-1,-1,-1,-1,-1,-1,-1],"loss_changes":[4.7076036E7,5.742592E6,2.2762118E7,2.39076E6,4.075072E6,1.0837446E7,8.938438E6,8.25172E5,2.000598E6,1.2389385E6,1.5678435E6,1.0247695E7,1.114942E6,3.762848E6,7.341311E6,2.3802466E5,5.86844E5,1.144076E6,1.19246E5,1.227692E6,0E0,1.7172962E5,1.1618258E6,4.207029E6,4.6342955E6,7.09577E5,3.8015394E5,2.9686E6,4.680848E6,1.051419E6,1.224604E6,0E0,1.13915375E5,1.33056E5,7.672241E5,1.0829658E6,1.2900694E5,4.5403975E5,2.667545E5,1.4664158E5,1.06042E6,2.3274375E4,7.651258E4,3.885327E5,1.526007E6,4.938478E6,1.4194028E6,6.8657075E6,8.222767E6,2.0933916E5,4.29188E5,0E0,1.3348628E5,9.952187E6,1.83579E6,9.49606E5,4.979659E6,0E0,2.135095E5,0E0,0E0,0E0,0E0,0E0,0E0,0E0,0E0,0E0,0E0,0E0,0E0,0E0,0E0,0E0,0E0,0E0,0E0,0E0,0E0,0E0,0E0,0E0,0E0,0E0,0E0,0E0,0E0,0E0,0E0,0E0,0E0,0E0,0E0,0E0,0E0,0E0,0E0,0E0,0E0,0E0,0E0,0E0,0E0,0E0,0E0,0E0,0E0,0E0,0E0,0E0,0E0],"parents":[2147483647,0,0,1,1,2,2,3,3,4,4,5,5,6,6,7,7,8,8,9,9,10,10,11,11,12,12,13,13,14,14,15,15,16,16,17,17,18,18,19,19,21,21,22,22,23,23,24,24,25,25,26,26,27,27,28,28,29,29,30,30,32,32,33,33,34,34,35,35,36,36,37,37,38,38,39,39,40,40,41,41,42,42,43,43,44,44,45,45,46,46,47,47,48,48,49,49,50,50,52,52,53,53,54,54,55,55,56,56,58,58],"right_children":[2,4,6,8,10,12,14,16,18,20,22,24,26,28,30,32,34,36,38,40,-1,42,44,46,48,50,52,54,56,58,60,-1,62,64,66,68,70,72,74,76,78,80,82,84,86,88,90,92,94,96,98,-1,100,102,104,106,108,-1,110,-1,-1,-1,-1,-1,-1,-1,-1,-1,-1,-1,-1,-1,-1,-1,-1,-1,-1,-1,-1,-1,-1,-1,-1,-1,-1,-1,-1,-1,-1,-1,-1,-1,-1,-1,-1,-1,-1,-1,-1,-1,-1,-1,-1,-1,-1,-1,-1,-1,-1,-1,-1],"split_conditions":[1.7892E1,3.083E1,4.5799E2,1.07352E1,1.18002E1,2.04E3,1.49E0,5.9E-2,7.7E1,7.3365E3,1.35382E1,9.636E2,1.94E-1,3.23E3,2.933337E0,1.89E0,1.38024E-1,1.84032E-2,4.73E0,3.4456E-3,1.9442823E1,4.847028E-1,6.6456E-2,1.296E3,1.296E2,9.2E-1,2.07E3,1.08288E0,1.046273E1,4.7E2,1.57E3,-5.3939503E1,6.603E0,1.265E2,3.5E1,1.52082E1,5.22E1,8.44E1,2.182E2,6E1,1.020671E-2,4.509E1,1.888E3,1.46544E1,1.4008E0,2.11E2,6.435E-2,3.18E2,7.3365E3,8.12E-2,1.25E-1,-5.544502E1,2.03E-1,1.46E0,1.23E0,1.14E4,1.062E0,1.1441473E2,7.22709E-1,1.6107024E2,1.9563282E1,-2.647754E-1,-2.956162E1,-7.1249626E1,-2.4804363E1,-5.5966652E1,1.7582617E1,-4.0194626E1,-2.1036499E0,3.710179E1,2.7779624E0,1.1015137E0,-4.982226E1,-7.39475E1,-3.0958603E1,-1.2628845E1,1.4457788E1,-7.578422E1,-3.7129673E1,1.6752913E1,4.5629562E1,1.3604736E0,2.7105494E1,-9.909778E0,3.0519184E1,-4.164986E1,3.0464453E1,-2.568295E-1,-1.8216763E1,1.2724859E1,-3.620077E0,2.159844E1,-4.6763927E1,1.4594873E1,1.7639012E2,1.9725683E1,-1.738653E1,2.230173E1,1.3486163E1,-1.7930273E1,4.487679E0,6.001924E0,-2.1757552E2,1.0223672E1,3.2329693E1,2.2881077E1,-4.8022682E1,4.697644E0,-1.9750517E2,1.4238406E1,3.804434E1],"split_indices":[2,5,2,2,2,0,1,1,0,5,2,5,1,0,6,5,6,6,5,6,0,6,6,0,2,5,0,6,6,0,0,0,2,0,0,2,0,0,0,5,6,5,5,2,6,0,6,0,5,1,1,0,1,1,1,0,1,0,6,0,0,0,0,0,0,0,0,0,0,0,0,0,0,0,0,0,0,0,0,0,0,0,0,0,0,0,0,0,0,0,0,0,0,0,0,0,0,0,0,0,0,0,0,0,0,0,0,0,0,0,0],"split_type":[0,0,0,0,0,0,0,0,0,0,0,0,0,0,0,0,0,0,0,0,0,0,0,0,0,0,0,0,0,0,0,0,0,0,0,0,0,0,0,0,0,0,0,0,0,0,0,0,0,0,0,0,0,0,0,0,0,0,0,0,0,0,0,0,0,0,0,0,0,0,0,0,0,0,0,0,0,0,0,0,0,0,0,0,0,0,0,0,0,0,0,0,0,0,0,0,0,0,0,0,0,0,0,0,0,0,0,0,0,0,0],"sum_hessian":[2.823E3,2.41E2,2.582E3,1.49E2,9.2E1,1.507E3,1.075E3,8.1E1,6.8E1,5.6E1,3.6E1,1.253E3,2.54E2,1.025E3,5E1,6E0,7.5E1,3.8E1,3E1,5.3E1,3E0,1.2E1,2.4E1,1.115E3,1.38E2,2.44E2,1E1,6.19E2,4.06E2,4.3E1,7E0,1E0,5E0,7.1E1,4E0,3.4E1,4E0,1.3E1,1.7E1,6E0,4.7E1,8E0,4E0,9E0,1.5E1,8.17E2,2.98E2,1.25E2,1.3E1,8E0,2.36E2,1E0,9E0,4.67E2,1.52E2,4.02E2,4E0,1E0,4.2E1,6E0,1E0,4E0,1E0,6.9E1,2E0,2E0,2E0,2.3E1,1.1E1,2E0,2E0,2E0,1.1E1,1.3E1,4E0,3E0,3E0,1E1,3.7E1,2E0,6E0,3E0,1E0,3E0,6E0,1.2E1,3E0,2.04E2,6.13E2,6.8E1,2.3E2,1.09E2,1.6E1,9E0,4E0,1E0,7E0,1.22E2,1.14E2,4E0,5E0,4.66E2,1E0,7.8E1,7.4E1,4.01E2,1E0,3E0,1E0,6E0,3.6E1],"tree_param":{"num_deleted":"0","num_feature":"8","num_nodes":"111","size_leaf_vector":"1"}},{"base_weights":[3.6086447E0,-4.9466492E2,1.0694163E2,-6.84436E2,-3.27896E2,4.644479E0,2.0285197E2,-9.3105975E2,-5.93207E2,-3.5297263E2,1.9296361E3,-1.2067828E2,4.978528E1,2.4016037E2,2.9483528E1,-8.45039E2,-1.691076E2,-6.2189984E2,-8.053916E1,-4.2290085E2,-2.4603114E2,9.210986E0,2.8023444E2,-1.3558778E1,-1.6246657E2,2.5465227E1,1.3327365E2,2.3200185E2,1.01567896E3,-1.6786821E2,2.0407162E2,-8.728517E1,-7.2001465E1,-6.3558527E2,6.388611E1,-3.5451702E1,1.611989E2,-2.9368228E2,-5.044992E2,1.8587101E1,-2.6516592E2,-8.0004745E1,7.480369E1,-1.908104E2,-8.05519E1,-9.120278E1,3.894497E1,6.537137E1,1.6483875E2,1.7734532E2,2.995102E2,2.4078777E2,1.7424126E2,-3.881248E1,-4.4493176E2,2.5856604E2,-4.60426E2,5.0476833E1,-6.127705E1,-6.598502E1,-4.3880466E1,-9.999976E0,1.5184798E1,2.7285059E1,8.429844E0,-3.2297787E1,2.1184828E1,-6.4633705E1,-4.0357822E1,-6.798951E1,-2.361813E1,-1.0405021E1,3.2337566E1,3.358693E1,2.3516266E0,-1.9575556E1,2.9526245E1,-5.2606597E0,-1.4887384E1,-7.42138E1,2.2599878E0,1.1593511E1,1.1691571E0,1.356486E-1,1.5149307E1,4.841846E0,1.8614704E1,8.089606E0,2.1985495E1,3.1430405E1,-1.6992544E1,1.5710775E0,3.4939857E1,2.5826162E1,-9.262919E0,1.74908E1,-5.39727E1,2.1750933E1,9.0659294E1,-6.985864E0,-1.7924825E2],"categories":[],"categories_nodes":[],"categories_segments":[],"categories_sizes":[],"default_left":[0,0,0,0,0,0,0,0,0,0,0,0,0,0,0,0,0,0,0,0,0,0,0,0,0,0,0,0,0,0,0,0,0,0,0,0,0,0,0,0,0,0,0,0,0,0,0,0,0,0,0,0,0,0,0,0,0,0,0,0,0,0,0,0,0,0,0,0,0,0,0,0,0,0,0,0,0,0,0,0,0,0,0,0,0,0,0,0,0,0,0,0,0,0,0,0,0,0,0,0,0],"id":10,"left_children":[1,3,5,7,9,11,13,15,17,19,21,23,25,27,29,31,-1,33,35,37,39,-1,-1,41,43,45,47,49,51,53,55,-1,57,59,61,-1,63,65,67,-1,69,71,73,75,77,79,81,83,85,87,89,91,-1,93,95,97,99,-1,-1,-1,-1,-1,-1,-1,-1,-1,-1,-1,-1,-1,-1,-1,-1,-1,-1,-1,-1,-1,-1,-1,-1,-1,-1,-1,-1,-1,-1,-1,-1,-1,-1,-1,-1,-1,-1,-1,-1,-1,-1,-1,-1],"loss_changes":[1.4478592E8,1.506152E7,2.2849704E7,4.510016E6,1.5343448E7,6.3872955E6,7.767572E6,2.428228E6,2.406464E6,1.817856E6,4.552748E6,1.336223E6,1.6818728E6,6.021844E6,7.407684E6,1.119668E6,0E0,1.523484E6,7.1945644E5,1.475618E6,9.087805E5,0E0,0E0,5.0504762E5,4.83811E5,1.0163415E6,3.90029E5,3.56286E6,5.211842E6,3.594152E6,4.24715E6,0E0,1.2450049E6,4.50556E5,7.2847586E4,0E0,2.8515531E4,9.86631E5,1.070392E6,0E0,1.0414985E6,5.0892106E5,4.8750875E5,4.39989E5,1.0099703E5,4.9800085E6,1.2114288E6,3.3609184E5,3.06038E5,2.212626E6,3.088264E6,1.4118544E5,0E0,1.1430511E6,1.974654E6,2.6230285E6,4.5570995E6,0E0,0E0,0E0,0E0,0E0,0E0,0E0,0E0,0E0,0E0,0E0,0E0,0E0,0E0,0E0,0E0,0E0,0E0,0E0,0E0,0E0,0E0,0E0,0E0,0E0,0E0,0E0,0E0,0E0,0E0,0E0,0E0,0E0,0E0,0E0,0E0,0E0,0E0,0E0,0E0,0E0,0E0,0E0,0E0],"parents":[2147483647,0,0,1,1,2,2,3,3,4,4,5,5,6,6,7,7,8,8,9,9,10,10,11,11,12,12,13,13,14,14,15,15,17,17,18,18,19,19,20,20,23,23,24,24,25,25,26,26,27,27,28,28,29,29,30,30,32,32,33,33,34,34,36,36,37,37,38,38,40,40,41,41,42,42,43,43,44,44,45,45,46,46,47,47,48,48,49,49,50,50,51,51,53,53,54,54,55,55,56,56],"right_children":[2,4,6,8,10,12,14,16,18,20,22,24,26,28,30,32,-1,34,36,38,40,-1,-1,42,44,46,48,50,52,54,56,-1,58,60,62,-1,64,66,68,-1,70,72,74,76,78,80,82,84,86,88,90,92,-1,94,96,98,100,-1,-1,-1,-1,-1,-1,-1,-1,-1,-1,-1,-1,-1,-1,-1,-1,-1,-1,-1,-1,-1,-1,-1,-1,-1,-1,-1,-1,-1,-1,-1,-1,-1,-1,-1,-1,-1,-1,-1,-1,-1,-1,-1,-1],"split_conditions":[7.6E-1,5.6E-1,9.9E-1,2.9E-1,7.3365E3,8.5E-1,3.541E2,1.33551E-1,1.27E3,7E-1,5.6E1,6.6456E-2,3.13E3,1.77E0,9.636E2,4.406E2,-1.691076E2,1.74384E0,3.559E1,5.361423E-2,2.62E1,9.210986E0,2.8023444E2,1.732E1,8.26E-1,1.08E-1,9.4E-1,1.15E0,1.39E0,8.6052E-1,1.78E0,-8.728517E1,5.3E2,8.5E2,2.1296E0,-3.5451702E1,1.35E3,2.588E2,6.31E2,1.8587101E1,5.6E1,2.37E3,2.271E1,1.1613E4,2.33E3,5.009E2,8.6265E-2,3.64E3,8.307E-2,1.259E3,1.87E0,1.6188E0,1.7424126E2,1.8105E-1,4.152E2,5.404777E0,2.372E3,5.0476833E1,-6.127705E1,-6.598502E1,-4.3880466E1,-9.999976E0,1.5184798E1,2.7285059E1,8.429844E0,-3.2297787E1,2.1184828E1,-6.4633705E1,-4.0357822E1,-6.798951E1,-2.361813E1,-1.0405021E1,3.2337566E1,3.358693E1,2.3516266E0,-1.9575556E1,2.9526245E1,-5.2606597E0,-1.4887384E1,-7.42138E1,2.2599878E0,1.1593511E1,1.1691571E0,1.356486E-1,1.5149307E1,4.841846E0,1.8614704E1,8.089606E0,2.1985495E1,3.1430405E1,-1.6992544E1,1.5710775E0,3.4939857E1,2.5826162E1,-9.262919E0,1.74908E1,-5.39727E1,2.1750933E1,9.0659294E1,-6.985864E0,-1.7924825E2],"split_indices":[4,4,4,4,5,4,5,6,0,4,0,6,0,1,5,0,0,6,5,6,0,0,0,5,4,1,4,4,4,6,4,0,0,0,6,0,0,5,0,0,0,0,5,5,0,0,6,0,6,0,4,6,0,6,5,6,5,0,0,0,0,0,0,0,0,0,0,0,0,0,0,0,0,0,0,0,0,0,0,0,0,0,0,0,0,0,0,0,0,0,0,0,0,0,0,0,0,0,0,0,0],"split_type":[0,0,0,0,0,0,0,0,0,0,0,0,0,0,0,0,0,0,0,0,0,0,0,0,0,0,0,0,0,0,0,0,0,0,0,0,0,0,0,0,0,0,0,0,0,0,0,0,0,0,0,0,0,0,0,0,0,0,0,0,0,0,0,0,0,0,0,0,0,0,0,0,0,0,0,0,0,0,0,0,0,0,0,0,0,0,0,0,0,0,0,0,0,0,0,0,0,0,0,0,0],"sum_hessian":[2.81E3,4.82E2,2.328E3,2.24E2,2.58E2,1.127E3,1.201E3,5.8E1,1.66E2,2.56E2,2E0,2.98E2,8.29E2,9.88E2,2.13E2,5.4E1,4E0,1.57E2,9E0,1.53E2,1.03E2,1E0,1E0,8.4E1,2.14E2,6.43E2,1.86E2,9.79E2,9E0,1E2,1.13E2,5.2E1,2E0,1.54E2,3E0,4E0,5E0,6.1E1,9.2E1,4E0,9.9E1,4.8E1,3.6E1,1.58E2,5.6E1,6.6E1,5.77E2,6E1,1.26E2,5.43E2,4.36E2,5E0,4E0,6.9E1,3.1E1,1.05E2,8E0,1E0,1E0,1.35E2,1.9E1,1E0,2E0,1E0,4E0,5.8E1,3E0,3.6E1,5.6E1,5E0,9.4E1,4.6E1,2E0,5E0,3.1E1,1.57E2,1E0,4.1E1,1.5E1,9E0,5.7E1,1.5E2,4.27E2,3.5E1,2.5E1,2E1,1.06E2,1.67E2,3.76E2,4.23E2,1.3E1,2E0,3E0,1E1,5.9E1,4E0,2.7E1,1E2,5E0,7E0,1E0],"tree_param":{"num_deleted":"0","num_feature":"8","num_nodes":"101","size_leaf_vector":"1"}},{"base_weights":[-6.64366E-1,-3.539673E2,3.1690136E1,-4.633958E2,-1.7330832E2,-4.6815865E1,9.980776E1,-5.4761597E2,-3.0369186E2,-3.0843835E2,-7.9251595E1,-7.303146E1,2.3994281E2,1.09085915E2,-2.1512917E2,-5.1043503E2,-2.0213118E2,7.198082E1,-3.720777E2,5.295642E1,-3.9452902E2,5.0288254E1,-2.1545175E2,7.85789E0,-1.0216531E2,1.605024E2,7.65347E2,9.857885E1,3.74156E2,-4.467135E2,1.2446809E2,-5.275281E2,5.3960743E1,2.1149846E2,-2.7755396E2,-3.9704605E2,3.6326538E1,1.6444296E2,-9.964087E1,-4.9134222E2,-1.8263876E2,-1.9626495E2,1.3765814E2,2.0877556E2,-3.2135684E2,-3.5496436E2,8.946015E1,-1.4977608E1,-1.3299806E2,1.9942117E2,-2.0760027E2,1.5227751E2,1.7158026E3,1.0166629E2,-5.8268005E2,2.7171814E2,8.2200854E2,-5.25401E2,7.807434E1,-3.2843586E1,2.6794998E2,-5.9886303E1,-3.0954237E1,2.877273E1,8.239502E0,-3.6041054E1,-5.592041E0,-4.9633007E1,-2.752016E1,2.0063635E1,9.834717E-1,-3.1657618E1,7.819629E0,-6.0479797E1,-3.4353313E1,3.6745434E1,-4.3485546E1,-4.266569E1,1.4079126E1,2.6264475E1,4.747688E0,-1.0625375E1,3.9285366E1,-5.6357952E1,-1.7074762E1,-1.825536E1,-5.2061382E1,4.199778E0,1.578036E1,-2.9893621E1,4.8390183E0,-1.7945562E1,-6.5603843E0,1.34391775E1,3.1139143E1,-3.773136E1,5.750532E1,3.6264366E1,-8.854415E0,2.6622272E2,8.1363976E1,1.695443E1,7.9791565E0,4.7388477E0,-1.8665114E2,3.800381E1,1.4014299E1,-1.5631983E1,9.6383965E1,-7.102618E1,-2.5102804E1,1.2497542E1,-3.1314454E0,7.2060122E0,-4.3603664E1,3.4479847E1,-1.7341894E1],"categories":[],"categories_nodes":[],"categories_segments":[],"categories_sizes":[],"default_left":[0,0,0,0,0,0,0,0,0,0,0,0,0,0,0,0,0,0,0,0,0,0,0,0,0,0,0,0,0,0,0,0,0,0,0,0,0,0,0,0,0,0,0,0,0,0,0,0,0,0,0,0,0,0,0,0,0,0,0,0,0,0,0,0,0,0,0,0,0,0,0,0,0,0,0,0,0,0,0,0,0,0,0,0,0,0,0,0,0,0,0,0,0,0,0,0,0,0,0,0,0,0,0,0,0,0,0,0,0,0,0,0,0,0,0,0,0],"id":11,"left_children":[1,3,5,7,9,11,13,15,17,19,21,23,25,27,29,31,-1,33,35,37,39,41,43,45,47,49,51,53,55,57,59,61,-1,63,65,67,-1,69,71,73,75,77,79,81,83,85,87,89,91,93,95,97,99,101,103,105,107,109,111,113,115,-1,-1,-1,-1,-1,-1,-1,-1,-1,-1,-1,-1,-1,-1,-1,-1,-1,-1,-1,-1,-1,-1,-1,-1,-1,-1,-1,-1,-1,-1,-1,-1,-1,-1,-1,-1,-1,-1,-1,-1,-1,-1,-1,-1,-1,-1,-1,-1,-1,-1,-1,-1,-1,-1,-1,-1],"loss_changes":[3.2292194E7,4.605002E6,1.3844371E7,1.810884E6,1.1321555E6,9.061138E6,4.073405E6,4.173624E6,1.388389E6,1.1720632E6,9.812189E5,2.6001535E6,4.0927315E6,3.714657E6,3.2014178E6,1.971806E6,0E0,4.9759866E5,9.70447E5,1.524856E5,5.25675E5,6.517159E5,1.2801431E6,8.70664E6,2.178167E6,1.3164235E6,7.3137605E6,2.78728E6,2.116376E6,1.032082E6,3.9251388E5,1.260776E6,0E0,4.518253E4,3.4937047E4,3.956865E5,0E0,2.6005766E4,1.7907172E5,1.276275E5,1.6859589E6,6.813099E5,2.3550234E5,3.8968212E5,7.0635125E5,1.4471875E6,7.7187075E5,3.8471512E6,1.863679E6,5.4794125E5,1.412416E6,4.880565E5,2.103051E6,1.904851E6,4.9418615E6,5.595855E5,1.3994835E6,8.868415E5,2.4435348E4,4.1208884E5,3.650613E5,0E0,0E0,0E0,0E0,0E0,0E0,0E0,0E0,0E0,0E0,0E0,0E0,0E0,0E0,0E0,0E0,0E0,0E0,0E0,0E0,0E0,0E0,0E0,0E0,0E0,0E0,0E0,0E0,0E0,0E0,0E0,0E0,0E0,0E0,0E0,0E0,0E0,0E0,0E0,0E0,0E0,0E0,0E0,0E0,0E0,0E0,0E0,0E0,0E0,0E0,0E0,0E0,0E0,0E0,0E0,0E0],"parents":[2147483647,0,0,1,1,2,2,3,3,4,4,5,5,6,6,7,7,8,8,9,9,10,10,11,11,12,12,13,13,14,14,15,15,17,17,18,18,19,19,20,20,21,21,22,22,23,23,24,24,25,25,26,26,27,27,28,28,29,29,30,30,31,31,33,33,34,34,35,35,37,37,38,38,39,39,40,40,41,41,42,42,43,43,44,44,45,45,46,46,47,47,48,48,49,49,50,50,51,51,52,52,53,53,54,54,55,55,56,56,57,57,58,58,59,59,60,60],"right_children":[2,4,6,8,10,12,14,16,18,20,22,24,26,28,30,32,-1,34,36,38,40,42,44,46,48,50,52,54,56,58,60,62,-1,64,66,68,-1,70,72,74,76,78,80,82,84,86,88,90,92,94,96,98,100,102,104,106,108,110,112,114,116,-1,-1,-1,-1,-1,-1,-1,-1,-1,-1,-1,-1,-1,-1,-1,-1,-1,-1,-1,-1,-1,-1,-1,-1,-1,-1,-1,-1,-1,-1,-1,-1,-1,-1,-1,-1,-1,-1,-1,-1,-1,-1,-1,-1,-1,-1,-1,-1,-1,-1,-1,-1,-1,-1,-1,-1],"split_conditions":[1.7892E1,3.559E1,3.15085E2,3E-2,9.0312E0,1.311E3,3.258E2,2.78E-2,7.1142E-3,1.6E-2,1.56E0,1.2E-1,1.296E2,1.49E0,1.0004E3,5.84154E-3,-2.0213118E2,2.157E1,8.5E-1,1.26E-2,4.152E2,1.11186E1,9.9471E0,6.17061E1,4.41549E1,7.37694E1,7.3365E3,1.13E1,1.675E0,1.0845E3,2.11848E-1,1.18002E1,5.3960743E1,8.71E0,9.0312E0,2.07E-1,3.6326538E1,4.473E0,2.982E0,5.9214E0,7.351E2,3.6E-1,1.35382E1,1.869E0,7.351E2,9.1E-2,1.83638E2,2.13E-1,1.7955E2,4.67E0,9.25E-1,1.83638E2,2.14E-1,1.94E-1,4.39E-1,2.0398E3,4.128264E2,2.14E-1,3.2E0,2.17936E3,6.82E-1,-5.9886303E1,-3.0954237E1,2.877273E1,8.239502E0,-3.6041054E1,-5.592041E0,-4.9633007E1,-2.752016E1,2.0063635E1,9.834717E-1,-3.1657618E1,7.819629E0,-6.0479797E1,-3.4353313E1,3.6745434E1,-4.3485546E1,-4.266569E1,1.4079126E1,2.6264475E1,4.747688E0,-1.0625375E1,3.9285366E1,-5.6357952E1,-1.7074762E1,-1.825536E1,-5.2061382E1,4.199778E0,1.578036E1,-2.9893621E1,4.8390183E0,-1.7945562E1,-6.5603843E0,1.34391775E1,3.1139143E1,-3.773136E1,5.750532E1,3.6264366E1,-8.854415E0,2.6622272E2,8.1363976E1,1.695443E1,7.9791565E0,4.7388477E0,-1.8665114E2,3.800381E1,1.4014299E1,-1.5631983E1,9.6383965E1,-7.102618E1,-2.5102804E1,1.2497542E1,-3.1314454E0,7.2060122E0,-4.3603664E1,3.4479847E1,-1.7341894E1],"split_indices":[2,5,2,3,2,5,5,3,6,3,3,1,2,1,2,6,0,5,3,3,5,2,2,2,2,2,5,3,3,5,6,2,0,5,2,1,0,2,2,2,5,3,2,3,5,1,2,1,2,3,1,2,1,1,1,2,2,1,3,2,1,0,0,0,0,0,0,0,0,0,0,0,0,0,0,0,0,0,0,0,0,0,0,0,0,0,0,0,0,0,0,0,0,0,0,0,0,0,0,0,0,0,0,0,0,0,0,0,0,0,0,0,0,0,0,0,0],"split_type":[0,0,0,0,0,0,0,0,0,0,0,0,0,0,0,0,0,0,0,0,0,0,0,0,0,0,0,0,0,0,0,0,0,0,0,0,0,0,0,0,0,0,0,0,0,0,0,0,0,0,0,0,0,0,0,0,0,0,0,0,0,0,0,0,0,0,0,0,0,0,0,0,0,0,0,0,0,0,0,0,0,0,0,0,0,0,0,0,0,0,0,0,0,0,0,0,0,0,0,0,0,0,0,0,0,0,0,0,0,0,0,0,0,0,0,0,0],"sum_hessian":[2.823E3,2.36E2,2.587E3,1.46E2,9E1,1.202E3,1.385E3,9.4E1,5.2E1,3.6E1,5.4E1,1.102E3,1E2,1.346E3,3.9E1,9.3E1,1E0,8E0,4.4E1,7E0,2.9E1,2.8E1,2.6E1,2.92E2,8.1E2,8.8E1,1.2E1,1.296E3,5E1,2.3E1,1.6E1,9.2E1,1E0,6E0,2E0,4.3E1,1E0,4E0,3E0,1.9E1,1E1,7E0,2.1E1,5E0,2.1E1,5.3E1,2.39E2,2.12E2,5.98E2,8E1,8E0,8E0,4E0,1.291E3,5E0,4.2E1,8E0,2E1,3E0,8E0,8E0,6.8E1,2.4E1,3E0,3E0,1E0,1E0,2.2E1,2.1E1,3E0,1E0,1E0,2E0,9E0,1E1,3E0,7E0,4E0,3E0,8E0,1.3E1,2E0,3E0,7E0,1.4E1,2.7E1,2.6E1,1.42E2,9.7E1,3.8E1,1.74E2,3.53E2,2.45E2,5.2E1,2.8E1,7E0,1E0,4E0,4E0,1E0,3E0,3.13E2,9.78E2,4E0,1E0,2.2E1,2E1,1E0,7E0,1.1E1,9E0,2E0,1E0,7E0,1E0,7E0,1E0],"tree_param":{"num_deleted":"0","num_feature":"8","num_nodes":"117","size_leaf_vector":"1"}},{"base_weights":[1.8103729E-1,-5.178452E2,7.468874E1,-8.391137E2,-4.5821365E2,-8.866708E1,1.3541248E2,-7.4748985E1,-1.462794E2,-4.684545E2,2.4992831E2,-9.6708046E1,1.750105E3,7.375344E1,1.866897E2,-5.2294305E2,-3.306249E2,8.246924E1,4.598823E1,-9.123635E1,-1.2919559E3,9.604175E0,2.5291158E2,7.7875565E1,-5.0395728E2,2.3858171E2,5.1018852E1,-4.462246E2,-6.028082E2,-3.7948505E2,4.589484E1,1.8016357E0,9.794808E0,-2.084029E2,-5.4885445E1,-1.6474806E1,-1.7731859E2,8.326532E1,-1.0502755E2,-2.0750017E2,2.2525195E2,2.2205411E2,6.1021295E2,-2.1011538E1,2.6741455E2,-4.799514E1,-8.985334E0,-1.2980525E1,-6.2585163E1,-3.9960472E1,9.262952E0,-3.320031E1,1.667614E1,1.3609289E0,-2.3333858E1,-6.5208597E0,1.5902605E1,5.832121E0,1.1013622E1,-2.9873968E1,3.1115723E0,6.138916E0,3.1403076E1,1.80292E1,2.8351873E1,9.593923E1,3.8765366E1,2.4778025E1,-1.2910883E1,3.0818007E1,-3.859782E0],"categories":[],"categories_nodes":[],"categories_segments":[],"categories_sizes":[],"default_left":[0,0,0,0,0,0,0,0,0,0,0,0,0,0,0,0,0,0,0,0,0,0,0,0,0,0,0,0,0,0,0,0,0,0,0,0,0,0,0,0,0,0,0,0,0,0,0,0,0,0,0,0,0,0,0,0,0,0,0,0,0,0,0,0,0,0,0,0,0,0,0],"id":12,"left_children":[1,3,5,7,9,11,13,-1,-1,15,17,19,21,23,25,27,29,31,-1,33,35,-1,-1,37,39,41,43,45,47,49,51,-1,-1,53,55,-1,-1,57,59,-1,61,63,65,67,69,-1,-1,-1,-1,-1,-1,-1,-1,-1,-1,-1,-1,-1,-1,-1,-1,-1,-1,-1,-1,-1,-1,-1,-1,-1,-1],"loss_changes":[1.1019435E8,6.493128E6,2.4771268E7,2.049496E6,2.328936E6,1.017903E7,5.740532E6,0E0,0E0,2.087652E6,1.3786738E5,4.296649E6,3.622699E6,2.0110425E6,6.97878E6,1.04222E6,1.636336E6,2.225955E3,0E0,2.854943E6,1.3352095E6,0E0,0E0,8.2006E5,7.3411185E6,4.27458E6,4.307649E6,1.315052E6,1.03052E6,7.7792E5,5.577927E5,0E0,0E0,8.83404E5,1.1476138E6,0E0,0E0,5.297935E5,6.422381E5,0E0,5.345964E4,1.717476E6,1.959482E6,6.075568E6,8.72653E5,0E0,0E0,0E0,0E0,0E0,0E0,0E0,0E0,0E0,0E0,0E0,0E0,0E0,0E0,0E0,0E0,0E0,0E0,0E0,0E0,0E0,0E0,0E0,0E0,0E0,0E0],"parents":[2147483647,0,0,1,1,2,2,3,3,4,4,5,5,6,6,9,9,10,10,11,11,12,12,13,13,14,14,15,15,16,16,17,17,19,19,20,20,23,23,24,24,25,25,26,26,27,27,28,28,29,29,30,30,33,33,34,34,37,37,38,38,40,40,41,41,42,42,43,43,44,44],"right_children":[2,4,6,8,10,12,14,-1,-1,16,18,20,22,24,26,28,30,32,-1,34,36,-1,-1,38,40,42,44,46,48,50,52,-1,-1,54,56,-1,-1,58,60,-1,62,64,66,68,70,-1,-1,-1,-1,-1,-1,-1,-1,-1,-1,-1,-1,-1,-1,-1,-1,-1,-1,-1,-1,-1,-1,-1,-1,-1,-1],"split_conditions":[6.7E-1,2.9E-1,9.05E-1,6.44E-1,3.058E0,7.3365E3,1.03E0,-7.4748985E1,-1.462794E2,8.35E2,4.39E-1,6.52239E0,5.6E1,1.42E0,8.574E1,5.6E-1,6.44E-1,9.4E0,4.598823E1,7.7E-1,1.831E3,9.604175E0,2.5291158E2,3.366E0,5.14E-1,1.59E0,1.311E3,3.3E-1,8.12E-2,2.372E3,1.98E-1,1.8016357E0,9.794808E0,6.78E-1,3.59E3,-1.6474806E1,-1.7731859E2,2.02E3,7.351E2,-2.0750017E2,2.5E3,1.19E0,3.11E0,9.5E-1,3.788E2,-4.799514E1,-8.985334E0,-1.2980525E1,-6.2585163E1,-3.9960472E1,9.262952E0,-3.320031E1,1.667614E1,1.3609289E0,-2.3333858E1,-6.5208597E0,1.5902605E1,5.832121E0,1.1013622E1,-2.9873968E1,3.1115723E0,6.138916E0,3.1403076E1,1.80292E1,2.8351873E1,9.593923E1,3.8765366E1,2.4778025E1,-1.2910883E1,3.0818007E1,-3.859782E0],"split_indices":[4,4,4,3,6,5,4,0,0,0,1,6,0,1,5,3,3,3,0,4,0,0,0,3,3,4,5,3,1,5,1,0,0,4,0,0,0,0,5,0,0,4,5,3,0,0,0,0,0,0,0,0,0,0,0,0,0,0,0,0,0,0,0,0,0,0,0,0,0,0,0],"split_type":[0,0,0,0,0,0,0,0,0,0,0,0,0,0,0,0,0,0,0,0,0,0,0,0,0,0,0,0,0,0,0,0,0,0,0,0,0,0,0,0,0,0,0,0,0,0,0,0,0,0,0,0,0,0,0,0,0,0,0,0,0,0,0,0,0,0,0,0,0,0,0],"sum_hessian":[2.853E3,3.58E2,2.495E3,5.4E1,3.04E2,6.76E2,1.819E3,4.9E1,5E0,3E2,4E0,6.74E2,2E0,8.27E2,9.92E2,2.13E2,8.7E1,3E0,1E0,6.72E2,2E0,1E0,1E0,8.22E2,5E0,7.17E2,2.75E2,1.12E2,1.01E2,7.7E1,1E1,1E0,2E0,1.58E2,5.14E2,1E0,1E0,7.99E2,2.3E1,1E0,4E0,6.88E2,2.9E1,2.07E2,6.8E1,1.02E2,1E1,5E0,9.6E1,7.4E1,3E0,2E0,8E0,1.6E1,1.42E2,4.91E2,2.3E1,4.16E2,3.83E2,9E0,1.4E1,2E0,2E0,4.12E2,2.76E2,1E1,1.9E1,5.9E1,1.48E2,6E1,8E0],"tree_param":{"num_deleted":"0","num_feature":"8","num_nodes":"71","size_leaf_vector":"1"}},{"base_weights":[-8.187622E0,-3.933623E2,7.035295E1,-6.309003E2,-3.054423E2,-5.4454437E1,1.1458981E2,-1.1244486E3,-5.933652E2,-3.1996152E2,2.4026602E2,-9.8401436E1,-1.0473548E1,1.0685238E2,5.679476E2,-6.405547E1,-1.4482039E2,-6.582541E2,-4.132626E2,-4.044537E2,-2.5521754E2,2.3596323E1,-1.2668616E2,-4.0577226E0,-4.0102734E2,1.2076112E2,-6.790302E1,1.974161E2,7.5257385E2,-5.6354974E2,-7.920919E2,3.9049594E0,-4.997078E2,-4.2277698E2,3.7462085E2,-3.7856775E2,-2.1745113E2,7.726762E1,-7.720257E1,-1.12161934E2,-2.3400395E2,-2.0526286E2,2.0325592E0,-4.5976967E1,-8.302905E0,8.141163E1,1.6893698E2,1.0237578E2,-2.3189781E2,3.6101562E1,9.093933E1,9.092411E2,2.615879E2,-5.90962E1,-3.810983E1,-1.3440147E2,-6.953247E1,2.291836E1,-2.2234991E1,-6.794809E1,-2.2618078E1,-4.436078E1,-5.176704E0,1.1309985E1,4.240946E1,1.696604E1,-4.2076183E1,-2.4322508E1,2.3341232E1,4.0298767E0,2.405111E1,1.6929644E0,-1.6431637E1,-2.005946E1,-8.930366E0,-2.83853E1,6.2041993E0,1.4341052E1,-4.0350132E1,1.015449E1,-9.485782E-1,2.8568258E0,1.00852995E1,2.1488771E1,1.6226548E0,-5.0405807E0,1.7996672E1,-1.816154E1,-1.7249869E2,-9.841675E0,1.3204973E1,9.65185E1,9.098511E0,3.106495E1,8.139893E-1],"categories":[],"categories_nodes":[],"categories_segments":[],"categories_sizes":[],"default_left":[0,0,0,0,0,0,0,0,0,0,0,0,0,0,0,0,0,0,0,0,0,0,0,0,0,0,0,0,0,0,0,0,0,0,0,0,0,0,0,0,0,0,0,0,0,0,0,0,0,0,0,0,0,0,0,0,0,0,0,0,0,0,0,0,0,0,0,0,0,0,0,0,0,0,0,0,0,0,0,0,0,0,0,0,0,0,0,0,0,0,0,0,0,0,0],"id":13,"left_children":[1,3,5,7,9,11,13,15,17,19,-1,21,23,25,27,-1,-1,29,31,33,35,37,39,41,43,45,47,49,51,53,55,57,59,61,63,65,67,69,71,73,75,77,79,-1,-1,81,83,85,87,-1,89,91,93,-1,-1,-1,-1,-1,-1,-1,-1,-1,-1,-1,-1,-1,-1,-1,-1,-1,-1,-1,-1,-1,-1,-1,-1,-1,-1,-1,-1,-1,-1,-1,-1,-1,-1,-1,-1,-1,-1,-1,-1,-1,-1],"loss_changes":[8.591265E7,9.852672E6,1.3030484E7,1.722568E6,1.4648548E7,1.1934571E6,6.049946E6,3.25653E5,1.15374E6,1.822344E6,0E0,1.0692472E6,7.7514744E5,4.174296E6,1.835315E6,0E0,0E0,6.69016E5,1.264126E6,2.313936E6,8.58696E5,3.2515566E5,3.649895E5,3.7538838E5,5.5225562E4,2.996612E6,3.5701948E6,1.587845E5,1.223661E6,4.9864E4,8.81348E5,4.077517E5,1.2723255E6,1.120846E6,3.7885625E3,1.1354565E6,1.881195E6,2.2566967E5,1.7498631E5,4.328625E5,4.4558138E5,6.7995056E5,3.4253594E5,0E0,0E0,8.970745E5,4.999744E6,7.559026E5,4.566665E6,0E0,7.5271945E4,5.53052E5,7.207878E4,0E0,0E0,0E0,0E0,0E0,0E0,0E0,0E0,0E0,0E0,0E0,0E0,0E0,0E0,0E0,0E0,0E0,0E0,0E0,0E0,0E0,0E0,0E0,0E0,0E0,0E0,0E0,0E0,0E0,0E0,0E0,0E0,0E0,0E0,0E0,0E0,0E0,0E0,0E0,0E0,0E0,0E0],"parents":[2147483647,0,0,1,1,2,2,3,3,4,4,5,5,6,6,7,7,8,8,9,9,11,11,12,12,13,13,14,14,17,17,18,18,19,19,20,20,21,21,22,22,23,23,24,24,25,25,26,26,27,27,28,28,29,29,30,30,31,31,32,32,33,33,34,34,35,35,36,36,37,37,38,38,39,39,40,40,41,41,42,42,45,45,46,46,47,47,48,48,50,50,51,51,52,52],"right_children":[2,4,6,8,10,12,14,16,18,20,-1,22,24,26,28,-1,-1,30,32,34,36,38,40,42,44,46,48,50,52,54,56,58,60,62,64,66,68,70,72,74,76,78,80,-1,-1,82,84,86,88,-1,90,92,94,-1,-1,-1,-1,-1,-1,-1,-1,-1,-1,-1,-1,-1,-1,-1,-1,-1,-1,-1,-1,-1,-1,-1,-1,-1,-1,-1,-1,-1,-1,-1,-1,-1,-1,-1,-1,-1,-1,-1,-1,-1,-1],"split_conditions":[7.5E-1,4.6E-1,9.3E-1,1.2E-1,7.3365E3,8.5E-1,5.404777E0,4.0479E0,1.7892E1,6.04E-1,2.4026602E2,4.3026E-2,6.1E0,3.366E0,1.32E0,-6.405547E1,-1.4482039E2,2.7E-2,2.2578E1,1.74384E0,3.71E0,8.1E-1,1.1E0,1.9E-2,2.0398E3,1.063E0,5.481E1,4.824E2,2.52154E3,4.2E-1,3E-2,4.15E-1,3.5E-1,6.6048E2,2.13426E1,6.35E-4,7.2875E2,9.15048E1,3.7914E1,7.0929E-2,7.27E0,8.282E1,7.6E-2,-4.5976967E1,-8.302905E0,5.33E0,8.574E1,7.351E2,1.1613E4,3.6101562E1,6.1983E2,4.26E0,1.55E0,-5.90962E1,-3.810983E1,-1.3440147E2,-6.953247E1,2.291836E1,-2.2234991E1,-6.794809E1,-2.2618078E1,-4.436078E1,-5.176704E0,1.1309985E1,4.240946E1,1.696604E1,-4.2076183E1,-2.4322508E1,2.3341232E1,4.0298767E0,2.405111E1,1.6929644E0,-1.6431637E1,-2.005946E1,-8.930366E0,-2.83853E1,6.2041993E0,1.4341052E1,-4.0350132E1,1.015449E1,-9.485782E-1,2.8568258E0,1.00852995E1,2.1488771E1,1.6226548E0,-5.0405807E0,1.7996672E1,-1.816154E1,-1.7249869E2,-9.841675E0,1.3204973E1,9.65185E1,9.098511E0,3.106495E1,8.139893E-1],"split_indices":[4,4,4,4,5,4,6,2,2,4,0,6,3,3,4,0,0,3,2,6,5,4,3,3,2,4,2,2,2,4,3,3,4,2,2,6,2,2,2,6,3,2,3,0,0,5,5,5,5,0,2,4,4,0,0,0,0,0,0,0,0,0,0,0,0,0,0,0,0,0,0,0,0,0,0,0,0,0,0,0,0,0,0,0,0,0,0,0,0,0,0,0,0,0,0],"split_type":[0,0,0,0,0,0,0,0,0,0,0,0,0,0,0,0,0,0,0,0,0,0,0,0,0,0,0,0,0,0,0,0,0,0,0,0,0,0,0,0,0,0,0,0,0,0,0,0,0,0,0,0,0,0,0,0,0,0,0,0,0,0,0,0,0,0,0,0,0,0,0,0,0,0,0,0,0,0,0,0,0,0,0,0,0,0,0,0,0,0,0,0,0,0,0],"sum_hessian":[2.838E3,4.8E2,2.358E3,1.28E2,3.52E2,6.17E2,1.741E3,7E0,1.21E2,3.51E2,1E0,3.08E2,3.09E2,1.713E3,2.8E1,4E0,3E0,8.7E1,3.4E1,1.5E2,2.01E2,5.8E1,2.5E2,3.05E2,4E0,1.587E3,1.26E2,1E1,1.8E1,5.4E1,3.3E1,6E0,2.8E1,1.47E2,3E0,4.5E1,1.56E2,3.8E1,2E1,2.22E2,2.8E1,8E0,2.97E2,3E0,1E0,8.75E2,7.12E2,6.2E1,6.4E1,3E0,7E0,1.3E1,5E0,4.5E1,9E0,3E0,3E1,3E0,3E0,1.6E1,1.2E1,1.39E2,8E0,1E0,2E0,3E0,4.2E1,1.48E2,8E0,3.2E1,6E0,1E1,1E1,4.4E1,1.78E2,2.4E1,4E0,3E0,5E0,3E1,2.67E2,2.36E2,6.39E2,5.47E2,1.65E2,2.1E1,4.1E1,6.3E1,1E0,1E0,6E0,1.2E1,1E0,4E0,1E0],"tree_param":{"num_deleted":"0","num_feature":"8","num_nodes":"95","size_leaf_vector":"1"}},{"base_weights":[-4.0038614E0,-3.274785E2,7.4856285E1,-4.772839E2,-2.2052014E2,5.050779E0,1.3486342E2,-9.747279E2,-4.4811374E2,-2.8556088E2,-1.4697803E2,-6.3669968E1,3.6572315E1,1.6963002E2,-3.2087784E0,-6.250669E1,-1.2202111E2,-4.7020468E2,-2.4179117E1,-3.2728436E1,-3.1290335E2,1.0290896E1,-1.9424446E2,2.700489E2,-7.268776E1,-6.4265686E1,4.622203E1,1.4951082E2,3.9535965E2,9.748428E1,-1.7910974E2,-4.7867758E2,8.581909E1,-2.6840113E1,1.8860818E2,-1.8823694E2,2.3853307E2,-3.3165277E2,7.541785E1,2.1564795E2,-7.3754234E1,-2.2216461E2,1.6007519E1,2.5817058E0,3.4609927E2,-2.1565099E2,-5.853131E1,-5.5168896E2,8.324661E1,1.365433E2,3.433585E1,1.143357E2,2.0085974E2,-1.6613893E2,5.1698267E2,2.962052E0,2.239337E2,1.3208303E1,-2.836417E2,-4.8256504E1,1.6106958E1,-5.500928E0,1.5109832E1,3.1919907E1,7.253203E0,-3.4664516E1,2.7945476E0,4.8350086E1,-6.6067996E0,-3.3951103E1,4.1568336E1,1.7761564E1,-3.199834E1,2.8261042E1,-5.7122073E0,-3.4277096E1,7.979696E0,-1.1804604E1,-2.6362635E1,1.9058668E1,-9.034072E0,1.957112E1,-1.9183863E1,1.4743262E1,3.960794E1,-3.5858837E1,-1.0837877E1,-6.5073853E0,2.2274784E1,7.5048537E0,-7.864161E1,1.2792463E1,-4.6253174E1,1.699251E1,8.729636E-1,-5.5932728E1,4.347291E0,2.2302153E0,1.4935027E1,-4.9766422E1,2.0605074E1,5.18719E1,-3.8058E1,9.641117E1,4.386871E1,8.390522E0,-2.4351551E1,1.0146217E1,3.5075314E1,-3.889756E1,2.3198095E1,-2.3202389E1,-1.6387376E2],"categories":[],"categories_nodes":[],"categories_segments":[],"categories_sizes":[],"default_left":[0,0,0,0,0,0,0,0,0,0,0,0,0,0,0,0,0,0,0,0,0,0,0,0,0,0,0,0,0,0,0,0,0,0,0,0,0,0,0,0,0,0,0,0,0,0,0,0,0,0,0,0,0,0,0,0,0,0,0,0,0,0,0,0,0,0,0,0,0,0,0,0,0,0,0,0,0,0,0,0,0,0,0,0,0,0,0,0,0,0,0,0,0,0,0,0,0,0,0,0,0,0,0,0,0,0,0,0,0,0,0,0,0],"id":14,"left_children":[1,3,5,7,9,11,13,15,17,19,21,23,25,27,29,-1,-1,31,33,35,37,39,41,43,45,47,49,51,53,55,57,59,61,-1,63,65,67,69,71,73,75,77,79,81,83,85,87,89,91,93,95,97,99,101,103,105,107,109,111,-1,-1,-1,-1,-1,-1,-1,-1,-1,-1,-1,-1,-1,-1,-1,-1,-1,-1,-1,-1,-1,-1,-1,-1,-1,-1,-1,-1,-1,-1,-1,-1,-1,-1,-1,-1,-1,-1,-1,-1,-1,-1,-1,-1,-1,-1,-1,-1,-1,-1,-1,-1,-1,-1],"loss_changes":[7.275141E7,8.851568E6,9.604302E6,2.929656E6,1.526928E6,2.3006492E6,5.919316E6,2.67317E5,2.05832E6,1.185719E6,1.1616315E6,1.0247711E6,7.113567E5,4.414268E6,4.4277495E6,0E0,0E0,1.030424E6,6.7423075E5,8.042032E5,1.160818E6,6.5449756E5,7.07988E5,1.8217525E5,6.471531E5,4.6475855E6,7.092391E5,1.613454E6,5.549184E6,1.8997494E6,1.8331542E6,5.92532E5,4.508447E4,0E0,8.295722E4,4.20628E5,5.542661E5,1.016171E6,3.801072E5,2.1706216E5,1.1426638E6,4.26475E5,2.957105E5,1.5018984E5,1.11106875E4,4.0579975E5,5.62899E5,2.2657045E6,1.2783839E6,3.270485E5,3.2192495E6,1.736828E6,1.433298E6,2.400339E6,1.887598E6,1.8558941E6,1.020572E6,2.9938002E6,3.7466515E6,0E0,0E0,0E0,0E0,0E0,0E0,0E0,0E0,0E0,0E0,0E0,0E0,0E0,0E0,0E0,0E0,0E0,0E0,0E0,0E0,0E0,0E0,0E0,0E0,0E0,0E0,0E0,0E0,0E0,0E0,0E0,0E0,0E0,0E0,0E0,0E0,0E0,0E0,0E0,0E0,0E0,0E0,0E0,0E0,0E0,0E0,0E0,0E0,0E0,0E0,0E0,0E0,0E0,0E0],"parents":[2147483647,0,0,1,1,2,2,3,3,4,4,5,5,6,6,7,7,8,8,9,9,10,10,11,11,12,12,13,13,14,14,17,17,18,18,19,19,20,20,21,21,22,22,23,23,24,24,25,25,26,26,27,27,28,28,29,29,30,30,31,31,32,32,34,34,35,35,36,36,37,37,38,38,39,39,40,40,41,41,42,42,43,43,44,44,45,45,46,46,47,47,48,48,49,49,50,50,51,51,52,52,53,53,54,54,55,55,56,56,57,57,58,58],"right_children":[2,4,6,8,10,12,14,16,18,20,22,24,26,28,30,-1,-1,32,34,36,38,40,42,44,46,48,50,52,54,56,58,60,62,-1,64,66,68,70,72,74,76,78,80,82,84,86,88,90,92,94,96,98,100,102,104,106,108,110,112,-1,-1,-1,-1,-1,-1,-1,-1,-1,-1,-1,-1,-1,-1,-1,-1,-1,-1,-1,-1,-1,-1,-1,-1,-1,-1,-1,-1,-1,-1,-1,-1,-1,-1,-1,-1,-1,-1,-1,-1,-1,-1,-1,-1,-1,-1,-1,-1,-1,-1,-1,-1,-1,-1],"split_conditions":[7.8E-1,5.6E-1,9.77E-1,1.2E-1,7E-1,8.7E-1,2.588E2,5.22E1,1.27E3,1.09E-1,3.19E1,3.6849E-3,1.08E-1,1.449E0,1.39E0,-6.250669E1,-1.2202111E2,1.74384E0,3.559E1,8.12E-2,1.05289E3,7.1E-1,2.56E3,4.65E0,1.61E0,6.31E2,5.187E2,1.13E0,1.73512E2,1.1891E3,2.22E2,1.062E0,2.1296E0,-2.6840113E1,1.35E3,1E3,5.751E-2,3.058E0,2.17936E3,2.61564E1,5.538E-3,7.3E-1,1.42E-1,2.799E2,6.9E-2,8.1E-1,3.751E3,9.27E-1,1.07E-1,4.847028E-1,8.938E1,1.19E3,5.1E-1,1.794E2,6.31E2,1.178E0,1.14E0,5.15034E-1,4.191E3,-4.8256504E1,1.6106958E1,-5.500928E0,1.5109832E1,3.1919907E1,7.253203E0,-3.4664516E1,2.7945476E0,4.8350086E1,-6.6067996E0,-3.3951103E1,4.1568336E1,1.7761564E1,-3.199834E1,2.8261042E1,-5.7122073E0,-3.4277096E1,7.979696E0,-1.1804604E1,-2.6362635E1,1.9058668E1,-9.034072E0,1.957112E1,-1.9183863E1,1.4743262E1,3.960794E1,-3.5858837E1,-1.0837877E1,-6.5073853E0,2.2274784E1,7.5048537E0,-7.864161E1,1.2792463E1,-4.6253174E1,1.699251E1,8.729636E-1,-5.5932728E1,4.347291E0,2.2302153E0,1.4935027E1,-4.9766422E1,2.0605074E1,5.18719E1,-3.8058E1,9.641117E1,4.386871E1,8.390522E0,-2.4351551E1,1.0146217E1,3.5075314E1,-3.889756E1,2.3198095E1,-2.3202389E1,-1.6387376E2],"split_indices":[4,4,4,4,4,4,5,0,0,1,2,6,1,4,4,0,0,6,5,1,2,4,0,5,5,0,0,4,2,5,0,1,6,0,0,0,6,6,2,2,6,4,1,0,1,4,0,4,1,6,2,0,5,0,0,6,4,6,5,0,0,0,0,0,0,0,0,0,0,0,0,0,0,0,0,0,0,0,0,0,0,0,0,0,0,0,0,0,0,0,0,0,0,0,0,0,0,0,0,0,0,0,0,0,0,0,0,0,0,0,0,0,0],"split_type":[0,0,0,0,0,0,0,0,0,0,0,0,0,0,0,0,0,0,0,0,0,0,0,0,0,0,0,0,0,0,0,0,0,0,0,0,0,0,0,0,0,0,0,0,0,0,0,0,0,0,0,0,0,0,0,0,0,0,0,0,0,0,0,0,0,0,0,0,0,0,0,0,0,0,0,0,0,0,0,0,0,0,0,0,0,0,0,0,0,0,0,0,0,0,0,0,0,0,0,0,0,0,0,0,0,0,0,0,0,0,0,0,0],"sum_hessian":[2.85E3,5.58E2,2.292E3,2.31E2,3.27E2,1.06E3,1.232E3,1.1E1,2.2E2,1.72E2,1.55E2,3.33E2,7.27E2,9.84E2,2.48E2,6E0,5E0,2.09E2,1.1E1,1.7E1,1.55E2,3.6E1,1.19E2,8E0,3.25E2,6.3E1,6.64E2,9.05E2,7.9E1,1.58E2,9E1,2.06E2,3E0,5E0,6E0,1.1E1,6E0,1.48E2,7E0,1E1,2.6E1,1.05E2,1.4E1,2E0,6E0,2.8E1,2.97E2,1.4E1,4.9E1,7.6E1,5.88E2,5.39E2,3.66E2,1.4E1,6.5E1,9.1E1,6.7E1,3.2E1,5.8E1,2.05E2,1E0,1E0,2E0,2E0,4E0,6E0,5E0,3E0,3E0,1.47E2,1E0,6E0,1E0,8E0,2E0,9E0,1.7E1,3.1E1,7.4E1,5E0,9E0,1E0,1E0,2E0,4E0,1.1E1,1.7E1,2.91E2,6E0,4E0,1E1,4.6E1,3E0,6E1,1.6E1,8E0,5.8E2,1.49E2,3.9E2,2E0,3.64E2,3E0,1.1E1,8E0,5.7E1,6.9E1,2.2E1,3.5E1,3.2E1,1.1E1,2.1E1,5.7E1,1E0],"tree_param":{"num_deleted":"0","num_feature":"8","num_nodes":"113","size_leaf_vector":"1"}},{"base_weights":[-7.701496E-1,-3.7089252E2,5.185068E1,-5.186117E2,-3.1492355E2,-8.011552E1,9.418365E1,-5.2558673E2,7.200977E0,-3.2384262E2,2.047172E2,-7.4641235E1,-1.698766E2,4.6614166E1,1.4246413E2,-4.3355115E2,-5.84639E2,-3.500429E2,-1.9321371E2,3.376979E1,3.4973958E0,-8.156641E1,7.7407764E2,7.304627E1,-3.738723E1,1.2422278E2,3.3923755E2,-4.635859E2,1.0141764E2,-8.283286E2,-5.120784E2,1.6964973E2,-3.558002E2,-2.3739319E2,3.1897425E1,-3.4360352E-1,8.682129E-1,-8.715163E1,2.5779388E2,-1.8215442E2,2.299503E2,5.978261E1,1.170858E2,-8.1448746E1,1.0348828E2,1.8449612E2,5.2466743E1,2.8594934E2,1.5938896E2,-4.8026463E1,-2.5411768E1,-3.069016E1,4.590281E1,-5.501775E1,-1.8049197E2,-3.0545546E1,-5.623863E1,-2.4800318E1,5.024778E1,-3.2732513E1,-4.5877728E1,-3.1193548E1,-9.6765995E0,-1.8303236E0,-1.1126176E1,2.9230778E1,-2.6415527E0,1.5065852E1,-5.9029663E1,1.470108E1,5.150438E0,-2.3829199E1,1.2066213E1,-6.30685E0,-6.9376366E1,2.8691336E1,6.6162453E0,1.9639977E1,-6.5209475E0,-1.5030493E0,1.370206E1,6.439621E1,2.4662483E1],"categories":[],"categories_nodes":[],"categories_segments":[],"categories_sizes":[],"default_left":[0,0,0,0,0,0,0,0,0,0,0,0,0,0,0,0,0,0,0,0,0,0,0,0,0,0,0,0,0,0,0,0,0,0,0,0,0,0,0,0,0,0,0,0,0,0,0,0,0,0,0,0,0,0,0,0,0,0,0,0,0,0,0,0,0,0,0,0,0,0,0,0,0,0,0,0,0,0,0,0,0,0,0],"id":15,"left_children":[1,3,5,7,9,11,13,15,-1,17,19,21,-1,23,25,27,29,31,33,-1,35,37,39,41,43,45,47,49,51,53,55,57,59,61,-1,-1,-1,63,65,67,-1,69,71,73,75,77,79,81,-1,-1,-1,-1,-1,-1,-1,-1,-1,-1,-1,-1,-1,-1,-1,-1,-1,-1,-1,-1,-1,-1,-1,-1,-1,-1,-1,-1,-1,-1,-1,-1,-1,-1,-1],"loss_changes":[5.5545724E7,2.771708E6,1.3957086E7,4.33328E5,1.271322E6,5.251801E6,4.336377E6,2.62846E5,0E0,8.0853E5,1.326107E5,3.624918E6,0E0,2.120929E6,3.324728E6,7.0579E5,5.48356E5,6.94674E5,1.0939912E6,0E0,1.3767607E2,1.1634992E6,7.712167E6,4.17075E5,1.4298752E6,3.7098E6,4.826025E6,1.4209E4,5.789341E5,1.995012E6,2.95979E5,5.416359E5,4.65608E5,4.100875E5,0E0,0E0,0E0,9.823105E5,1.0581319E5,6.322733E5,0E0,3.96802E5,2.4100075E5,1.9257832E6,3.575742E5,1.400921E6,2.2506775E6,9.252405E5,0E0,0E0,0E0,0E0,0E0,0E0,0E0,0E0,0E0,0E0,0E0,0E0,0E0,0E0,0E0,0E0,0E0,0E0,0E0,0E0,0E0,0E0,0E0,0E0,0E0,0E0,0E0,0E0,0E0,0E0,0E0,0E0,0E0,0E0,0E0],"parents":[2147483647,0,0,1,1,2,2,3,3,4,4,5,5,6,6,7,7,9,9,10,10,11,11,13,13,14,14,15,15,16,16,17,17,18,18,20,20,21,21,22,22,23,23,24,24,25,25,26,26,27,27,28,28,29,29,30,30,31,31,32,32,33,33,37,37,38,38,39,39,41,41,42,42,43,43,44,44,45,45,46,46,47,47],"right_children":[2,4,6,8,10,12,14,16,-1,18,20,22,-1,24,26,28,30,32,34,-1,36,38,40,42,44,46,48,50,52,54,56,58,60,62,-1,-1,-1,64,66,68,-1,70,72,74,76,78,80,82,-1,-1,-1,-1,-1,-1,-1,-1,-1,-1,-1,-1,-1,-1,-1,-1,-1,-1,-1,-1,-1,-1,-1,-1,-1,-1,-1,-1,-1,-1,-1,-1,-1,-1,-1],"split_conditions":[6.7E-1,4E-1,8.9E-1,4.081E2,3.058E0,3.93E3,1.04E0,3.9E1,7.200977E0,1.173E3,7.176E2,7.3365E3,-1.698766E2,1.9383E-1,2.933337E0,3.5E1,4.92E1,1.53E1,3.2802E-1,3.376979E1,3.68E-1,3.64E3,3.703E2,9.9E-1,3.09E3,2.53683E-1,1.77E0,3.5E-1,4.17E1,3.79E-1,4.31538E-3,1.21E1,2.14E-1,1.69E3,3.1897425E1,-3.4360352E-1,8.682129E-1,5.9286E-2,8.8E-1,1.453E2,2.299503E2,1.091264E-2,6.6E-2,1.42E0,3.15E-1,4.67E-1,9.46E-1,1.49E2,1.5938896E2,-4.8026463E1,-2.5411768E1,-3.069016E1,4.590281E1,-5.501775E1,-1.8049197E2,-3.0545546E1,-5.623863E1,-2.4800318E1,5.024778E1,-3.2732513E1,-4.5877728E1,-3.1193548E1,-9.6765995E0,-1.8303236E0,-1.1126176E1,2.9230778E1,-2.6415527E0,1.5065852E1,-5.9029663E1,1.470108E1,5.150438E0,-2.3829199E1,1.2066213E1,-6.30685E0,-6.9376366E1,2.8691336E1,6.6162453E0,1.9639977E1,-6.5209475E0,-1.5030493E0,1.370206E1,6.439621E1,2.4662483E1],"split_indices":[4,4,4,0,6,0,4,0,0,0,0,5,0,6,6,0,0,0,6,0,1,0,0,4,0,6,1,4,5,4,6,0,1,0,0,0,0,6,4,0,0,6,1,1,1,1,1,0,0,0,0,0,0,0,0,0,0,0,0,0,0,0,0,0,0,0,0,0,0,0,0,0,0,0,0,0,0,0,0,0,0,0,0],"split_type":[0,0,0,0,0,0,0,0,0,0,0,0,0,0,0,0,0,0,0,0,0,0,0,0,0,0,0,0,0,0,0,0,0,0,0,0,0,0,0,0,0,0,0,0,0,0,0,0,0,0,0,0,0,0,0,0,0,0,0,0,0,0,0,0,0,0,0,0,0,0,0,0,0,0,0,0,0,0,0,0,0,0,0],"sum_hessian":[2.85E3,3.54E2,2.496E3,9.5E1,2.59E2,6.06E2,1.89E3,9.4E1,1E0,2.55E2,4E0,6.05E2,1E0,9.53E2,9.37E2,4E1,5.4E1,2.11E2,4.4E1,2E0,2E0,6.01E2,4E0,7.25E2,2.28E2,8.59E2,7.8E1,3.8E1,2E0,1E1,4.4E1,2E0,2.09E2,4.1E1,3E0,1E0,1E0,5.92E2,9E0,3E0,1E0,5.59E2,1.66E2,1.74E2,5.4E1,4.66E2,3.93E2,7.6E1,2E0,3.4E1,4E0,1E0,1E0,9E0,1E0,1E1,3.4E1,1E0,1E0,1.67E2,4.2E1,2.6E1,1.5E1,1.54E2,4.38E2,8E0,1E0,2E0,1E0,4.7E1,5.12E2,1E0,1.65E2,1.7E2,4E0,8E0,4.6E1,4.45E2,2.1E1,2.19E2,1.74E2,6E0,7E1],"tree_param":{"num_deleted":"0","num_feature":"8","num_nodes":"83","size_leaf_vector":"1"}},{"base_weights":[-2.5074346E0,-2.3410951E2,2.0245846E1,-2.2196156E2,-1.16435356E2,-1.0832799E1,9.946827E1,-3.2523422E2,-1.04555176E2,-2.7035496E1,2.5653772E2,1.0451742E2,-8.304586E2,-2.8668643E2,-6.56042E2,-4.7877956E1,-2.5537901E2,-2.4921703E1,-6.309498E2,1.6211078E2,5.233225E2,6.751549E1,1.296349E2,-3.1393066E1,-1.6138277E2,-2.9715057E2,2.2046484E1,-2.9519989E1,-9.231639E2,-2.1494556E2,8.536666E0,-1.8433917E2,-4.1644315E2,-2.8105566E1,5.8596533E2,1.1199072E2,-1.4112206E2,1.09393005E2,4.473356E2,5.720763E2,-5.7399414E1,7.687975E1,-4.8536905E2,1.145422E2,1.803229E2,-8.435938E0,3.7269776E0,-3.0666443E1,1.6976889E1,-1.7146738E2,-5.0546658E1,-4.046415E1,-2.3145509E0,7.6452384E0,-1.3076988E1,-2.6693317E1,1.829047E1,-1.2156982E1,-4.3810608E1,-3.3139627E0,2.0163568E1,1.645171E1,1.3740228E2,1.5764453E1,-1.2485352E0,-7.1425784E-1,1.5148867E1,-3.55323E1,5.526067E1,1.2557454E0,6.201841E1,-1.3175806E1,4.5658937E0,6.9698024E0,7.359115E1,-7.610156E1,3.0860865E1,1.2809978E1,4.567731E0,2.2288721E1,5.05248E0],"categories":[],"categories_nodes":[],"categories_segments":[],"categories_sizes":[],"default_left":[0,0,0,0,0,0,0,0,0,0,0,0,0,0,0,0,0,0,0,0,0,0,0,0,0,0,0,0,0,0,0,0,0,0,0,0,0,0,0,0,0,0,0,0,0,0,0,0,0,0,0,0,0,0,0,0,0,0,0,0,0,0,0,0,0,0,0,0,0,0,0,0,0,0,0,0,0,0,0,0,0],"id":16,"left_children":[1,3,5,7,-1,9,11,13,15,17,19,21,23,25,27,29,31,33,35,37,39,41,43,45,-1,47,-1,-1,49,51,53,55,57,59,61,63,-1,65,67,69,71,73,75,77,79,-1,-1,-1,-1,-1,-1,-1,-1,-1,-1,-1,-1,-1,-1,-1,-1,-1,-1,-1,-1,-1,-1,-1,-1,-1,-1,-1,-1,-1,-1,-1,-1,-1,-1,-1,-1],"loss_changes":[1.4786268E7,2.578E6,6.291808E6,2.985088E6,0E0,7.960714E6,3.4674415E6,1.495174E6,9.964694E5,2.195261E6,2.560289E6,6.576245E5,2.45319E6,7.02339E5,9.80537E5,8.2181475E5,2.8937612E5,3.375451E6,3.6362118E6,1.1389416E6,7.972715E5,1.5491029E6,3.05243E5,1.4054506E4,0E0,5.76242E5,0E0,0E0,1.4475705E6,7.910755E5,6.3443056E5,7.767947E5,4.23E3,1.9947586E6,2.7630788E6,2.4699477E4,0E0,3.3466562E5,1.2103142E6,6.65142E5,2.900577E4,1.3118091E6,1.3291422E6,3.03184E5,5.191165E5,0E0,0E0,0E0,0E0,0E0,0E0,0E0,0E0,0E0,0E0,0E0,0E0,0E0,0E0,0E0,0E0,0E0,0E0,0E0,0E0,0E0,0E0,0E0,0E0,0E0,0E0,0E0,0E0,0E0,0E0,0E0,0E0,0E0,0E0,0E0,0E0],"parents":[2147483647,0,0,1,1,2,2,3,3,5,5,6,6,7,7,8,8,9,9,10,10,11,11,12,12,13,13,14,14,15,15,16,16,17,17,18,18,19,19,20,20,21,21,22,22,23,23,25,25,28,28,29,29,30,30,31,31,32,32,33,33,34,34,35,35,37,37,38,38,39,39,40,40,41,41,42,42,43,43,44,44],"right_children":[2,4,6,8,-1,10,12,14,16,18,20,22,24,26,28,30,32,34,36,38,40,42,44,46,-1,48,-1,-1,50,52,54,56,58,60,62,64,-1,66,68,70,72,74,76,78,80,-1,-1,-1,-1,-1,-1,-1,-1,-1,-1,-1,-1,-1,-1,-1,-1,-1,-1,-1,-1,-1,-1,-1,-1,-1,-1,-1,-1,-1,-1,-1,-1,-1,-1,-1,-1],"split_conditions":[1.7892E1,2.2365E0,2.56E3,1.07352E1,-1.16435356E2,2.4069E0,1.046273E1,9.9471E0,7.7E1,1.1613E4,1.35E0,3.23E3,1.062E0,1.29E2,1.93E1,5.538E-3,7.7958E-2,7.3365E3,1.794E2,6.52239E0,1.831E3,7.351E2,4.7E3,3.751E3,-1.6138277E2,5E3,2.2046484E1,-2.9519989E1,2.437E1,5.85E1,4.723E2,1.767E1,1.25E0,1.49E0,1.225E0,1.044E2,-1.4112206E2,3.65E0,8.44E1,1.02E0,2.46E3,6.7547E2,1.01974E3,1.56978E3,6.4E3,-8.435938E0,3.7269776E0,-3.0666443E1,1.6976889E1,-1.7146738E2,-5.0546658E1,-4.046415E1,-2.3145509E0,7.6452384E0,-1.3076988E1,-2.6693317E1,1.829047E1,-1.2156982E1,-4.3810608E1,-3.3139627E0,2.0163568E1,1.645171E1,1.3740228E2,1.5764453E1,-1.2485352E0,-7.1425784E-1,1.5148867E1,-3.55323E1,5.526067E1,1.2557454E0,6.201841E1,-1.3175806E1,4.5658937E0,6.9698024E0,7.359115E1,-7.610156E1,3.0860865E1,1.2809978E1,4.567731E0,2.2288721E1,5.05248E0],"split_indices":[2,6,0,2,0,6,6,2,0,5,1,0,1,0,5,6,6,5,0,6,0,5,0,0,0,5,0,0,5,0,5,5,5,1,6,0,0,5,0,5,0,5,5,2,0,0,0,0,0,0,0,0,0,0,0,0,0,0,0,0,0,0,0,0,0,0,0,0,0,0,0,0,0,0,0,0,0,0,0,0,0],"split_type":[0,0,0,0,0,0,0,0,0,0,0,0,0,0,0,0,0,0,0,0,0,0,0,0,0,0,0,0,0,0,0,0,0,0,0,0,0,0,0,0,0,0,0,0,0,0,0,0,0,0,0,0,0,0,0,0,0,0,0,0,0,0,0,0,0,0,0,0,0,0,0,0,0,0,0,0,0,0,0,0,0],"sum_hessian":[2.804E3,2.5E2,2.554E3,2.48E2,2E0,1.835E3,7.19E2,1.31E2,1.17E2,1.731E3,1.04E2,7.16E2,3E0,1.19E2,1.2E1,8.6E1,3.1E1,1.726E3,5E0,7.8E1,2.6E1,2.91E2,4.25E2,2E0,1E0,1.17E2,2E0,6E0,6E0,2.1E1,6.5E1,2.3E1,8E0,1.718E3,8E0,3E0,2E0,6.7E1,1.1E1,2.4E1,2E0,2.87E2,4E0,3.3E2,9.5E1,1E0,1E0,1.15E2,2E0,1E0,5E0,1E1,1.1E1,4.4E1,2.1E1,1.9E1,4E0,1E0,7E0,1.682E3,3.6E1,6E0,2E0,2E0,1E0,1.8E1,4.9E1,1E0,1E1,2E0,2.2E1,1E0,1E0,2.85E2,2E0,3E0,1E0,2.75E2,5.5E1,7.1E1,2.4E1],"tree_param":{"num_deleted":"0","num_feature":"8","num_nodes":"81","size_leaf_vector":"1"}},{"base_weights":[2.1902106E0,-1.8684938E2,2.1056465E1,-3.462366E2,-1.5833995E2,-9.908416E0,8.299782E1,-3.6489868E2,-9.63844E1,-1.3833316E2,-3.2281805E2,-2.6730185E1,9.380863E1,9.251914E1,7.993852E1,-4.1213535E2,-2.9064014E2,2.984314E1,-3.274668E1,-1.5888673E2,1.21642624E2,-2.2268524E2,-1.2628699E2,8.1877205E1,-4.606889E1,1.0684149E2,-3.5340067E2,6.673651E1,2.0666872E2,-4.4405704E2,-1.814148E2,-2.188916E0,-3.0606897E1,-3.7237723E2,-1.3620276E2,-1.0580375E2,2.850295E2,3.7645428E1,-3.0146753E2,-1.2363377E1,1.5064449E2,-4.239592E1,-1.1805186E2,3.8647324E1,1.3413283E2,-5.470205E1,-7.334315E1,-6.969832E1,6.862617E1,-2.391823E2,2.888657E2,-1.161322E1,-4.5817654E1,-2.1423738E1,-4.1473513E0,-4.240101E1,2.2687403E1,-2.1013433E1,-8.329891E0,9.1078005E0,-2.7623457E1,9.909072E0,4.139624E1,2.420901E1,-2.4749594E1,-1.417055E1,-4.2773315E1,3.3250027E1,-3.5216916E0,3.285189E1,1.0685873E1,-4.5812855E0,1.3909044E2,1.2344012E1,1.0183387E0,1.743186E1,7.2152085E0,-1.4230298E1,1.4785083E1,7.610822E0,-1.2595168E1,7.3710303E0,-9.616183E1,1.7595243E1,4.88542E1],"categories":[],"categories_nodes":[],"categories_segments":[],"categories_sizes":[],"default_left":[0,0,0,0,0,0,0,0,0,0,0,0,0,0,0,0,0,0,0,0,0,0,0,0,0,0,0,0,0,0,0,0,0,0,0,0,0,0,0,0,0,0,0,0,0,0,0,0,0,0,0,0,0,0,0,0,0,0,0,0,0,0,0,0,0,0,0,0,0,0,0,0,0,0,0,0,0,0,0,0,0,0,0,0,0],"id":17,"left_children":[1,3,5,7,9,11,13,15,17,19,21,23,25,-1,27,29,31,-1,-1,33,35,37,-1,39,41,43,45,47,49,51,53,-1,-1,55,57,59,61,63,65,67,69,71,-1,73,75,77,-1,-1,79,81,83,-1,-1,-1,-1,-1,-1,-1,-1,-1,-1,-1,-1,-1,-1,-1,-1,-1,-1,-1,-1,-1,-1,-1,-1,-1,-1,-1,-1,-1,-1,-1,-1,-1,-1],"loss_changes":[1.0061377E7,1.108451E6,4.920509E6,1.42014E5,6.760015E5,2.9876968E6,2.128965E6,2.9875E3,4.6266628E5,1.0719835E6,1.8837682E6,3.0975525E6,1.4307495E6,0E0,1.4133565E6,5.937625E4,6.379125E4,0E0,0E0,8.355165E5,5.8758344E5,4.6255662E5,0E0,1.4470514E6,5.1626175E6,4.284545E5,7.5448256E5,1.164842E6,3.0009002E6,2.087325E4,9.487766E3,0E0,0E0,6.2219475E5,6.35677E5,2.600419E5,1.7474288E5,4.0969006E5,2.8231962E5,7.604382E5,9.69594E5,6.1757995E6,0E0,1.6286347E5,4.00886E5,1.0975871E5,0E0,0E0,1.134952E6,3.0094642E6,1.4471745E6,0E0,0E0,0E0,0E0,0E0,0E0,0E0,0E0,0E0,0E0,0E0,0E0,0E0,0E0,0E0,0E0,0E0,0E0,0E0,0E0,0E0,0E0,0E0,0E0,0E0,0E0,0E0,0E0,0E0,0E0,0E0,0E0,0E0,0E0],"parents":[2147483647,0,0,1,1,2,2,3,3,4,4,5,5,6,6,7,7,8,8,9,9,10,10,11,11,12,12,14,14,15,15,16,16,19,19,20,20,21,21,23,23,24,24,25,25,26,26,27,27,28,28,29,29,30,30,33,33,34,34,35,35,36,36,37,37,38,38,39,39,40,40,41,41,43,43,44,44,45,45,48,48,49,49,50,50],"right_children":[2,4,6,8,10,12,14,16,18,20,22,24,26,-1,28,30,32,-1,-1,34,36,38,-1,40,42,44,46,48,50,52,54,-1,-1,56,58,60,62,64,66,68,70,72,-1,74,76,78,-1,-1,80,82,84,-1,-1,-1,-1,-1,-1,-1,-1,-1,-1,-1,-1,-1,-1,-1,-1,-1,-1,-1,-1,-1,-1,-1,-1,-1,-1,-1,-1,-1,-1,-1,-1,-1,-1],"split_conditions":[1.7892E1,7.6E-3,6.0021E2,1.565E1,1.58112E1,2.56E3,4.7E2,4.0479E0,1.21E1,1.52082E1,2.43E0,1.794E2,2.09E-1,9.251914E1,1.4E0,6E-3,2.62E1,2.984314E1,-3.274668E1,2.86E0,1.28E1,3.3E0,-1.2628699E2,1.9199E2,1.1613E4,4.19E0,2.609E3,5.1E-1,5.14E-1,6.6E-2,2.62E1,-2.188916E0,-3.0606897E1,1.265E2,4.11E1,1.73E-2,5.213E-2,1.531E2,9.637E-2,1.82115E1,3.541E2,7.3365E3,-1.1805186E2,3.596E2,1.53E-1,2.6E3,-7.334315E1,-6.969832E1,3.837E2,4.75E-1,1.6E0,-1.161322E1,-4.5817654E1,-2.1423738E1,-4.1473513E0,-4.240101E1,2.2687403E1,-2.1013433E1,-8.329891E0,9.1078005E0,-2.7623457E1,9.909072E0,4.139624E1,2.420901E1,-2.4749594E1,-1.417055E1,-4.2773315E1,3.3250027E1,-3.5216916E0,3.285189E1,1.0685873E1,-4.5812855E0,1.3909044E2,1.2344012E1,1.0183387E0,1.743186E1,7.2152085E0,-1.4230298E1,1.4785083E1,7.610822E0,-1.2595168E1,7.3710303E0,-9.616183E1,1.7595243E1,4.88542E1],"split_indices":[2,3,2,5,2,0,0,2,0,2,3,0,1,0,1,3,0,0,0,5,5,5,0,5,5,5,0,5,3,1,0,0,0,0,0,3,3,0,3,2,5,5,0,2,1,0,0,0,5,3,3,0,0,0,0,0,0,0,0,0,0,0,0,0,0,0,0,0,0,0,0,0,0,0,0,0,0,0,0,0,0,0,0,0,0],"split_type":[0,0,0,0,0,0,0,0,0,0,0,0,0,0,0,0,0,0,0,0,0,0,0,0,0,0,0,0,0,0,0,0,0,0,0,0,0,0,0,0,0,0,0,0,0,0,0,0,0,0,0,0,0,0,0,0,0,0,0,0,0,0,0,0,0,0,0,0,0,0,0,0,0,0,0,0,0,0,0,0,0,0,0,0,0],"sum_hessian":[2.819E3,2.55E2,2.564E3,3.7E1,2.18E2,1.71E3,8.54E2,3.4E1,3E0,1.96E2,2.2E1,1.472E3,2.38E2,2E0,8.52E2,1.8E1,1.6E1,1E0,2E0,1.82E2,1.4E1,2.1E1,1E0,2.22E2,1.25E3,2.32E2,6E0,7.73E2,7.9E1,1.5E1,3E0,1E0,1.5E1,1.6E1,1.66E2,6E0,8E0,5E0,1.6E1,9.4E1,1.28E2,1.247E3,3E0,6.7E1,1.65E2,4E0,2E0,1E0,7.72E2,1.2E1,6.7E1,1E0,1.4E1,2E0,1E0,1.5E1,1E0,6.8E1,9.8E1,3E0,3E0,4E0,4E0,3E0,2E0,8E0,8E0,5E0,8.9E1,2.4E1,1.04E2,1.245E3,2E0,1.6E1,5.1E1,9.9E1,6.6E1,3E0,1E0,7.44E2,2.8E1,9E0,3E0,4.4E1,2.3E1],"tree_param":{"num_deleted":"0","num_feature":"8","num_nodes":"85","size_leaf_vector":"1"}},{"base_weights":[1.1752015E0,-2.43456E2,5.1880833E1,-3.346777E2,-1.470389E2,9.52707E-1,1.0447217E2,-3.462853E2,1.970144E2,-1.6693416E2,4.5079053E2,-5.559885E1,3.3329998E1,1.529516E2,5.981399E1,-7.0954626E2,-3.310936E2,6.4291506E0,3.0830679E1,1.9678802E2,-1.8074112E2,2.0462813E2,-6.946261E1,6.7807365E1,-7.925712E1,4.955625E1,-3.2434795E1,1.4383781E2,6.9189764E2,2.3011938E1,2.5072452E2,-4.346232E1,-9.445444E1,-3.0413867E2,-5.1486743E2,3.3401373E2,-1.890013E1,-1.6069574E2,-3.7817145E2,-4.8009686E1,1.9081046E2,3.9316586E1,3.226778E2,-8.767913E1,2.664299E2,5.5559555E1,-1.4136617E2,-4.842923E1,1.7698744E2,1.592817E2,-5.6667458E1,9.567722E1,3.999983E1,-6.2219204E1,9.840848E1,2.1864424E2,8.0368896E2,-3.2556732E1,-1.6471445E1,-5.460679E1,1.793728E1,-6.7173586E0,4.120739E1,-1.7300114E1,2.7831724E1,-4.7801826E1,-6.552588E0,3.2830875E1,-1.0291342E0,6.3348403E0,-4.7845703E1,3.5269493E1,7.12876E0,-6.8386016E0,-1.7258505E1,1.3982402E1,3.3974983E1,-3.2248337E0,6.2962127E0,3.11198E1,-1.837974E1,-6.3472915E0,5.8731284E0,2.12881E1,9.133897E0,1.11361685E1,2.0790075E1,-1.393989E1,9.051152E0,9.508826E0,-2.5214918E1,8.189196E0,1.5465874E2,2.4279041E1,-1.1614244E1,-7.423356E0,1.4137152E2],"categories":[],"categories_nodes":[],"categories_segments":[],"categories_sizes":[],"default_left":[0,0,0,0,0,0,0,0,0,0,0,0,0,0,0,0,0,0,0,0,0,0,0,0,0,0,0,0,0,0,0,0,0,0,0,0,0,0,0,0,0,0,0,0,0,0,0,0,0,0,0,0,0,0,0,0,0,0,0,0,0,0,0,0,0,0,0,0,0,0,0,0,0,0,0,0,0,0,0,0,0,0,0,0,0,0,0,0,0,0,0,0,0,0,0,0,0],"id":18,"left_children":[1,3,5,7,9,11,13,15,17,19,21,23,25,27,29,31,33,-1,-1,35,37,-1,39,41,43,45,47,49,51,53,55,-1,-1,57,59,61,-1,63,65,-1,67,69,71,73,75,77,79,81,83,85,87,-1,-1,89,91,93,95,-1,-1,-1,-1,-1,-1,-1,-1,-1,-1,-1,-1,-1,-1,-1,-1,-1,-1,-1,-1,-1,-1,-1,-1,-1,-1,-1,-1,-1,-1,-1,-1,-1,-1,-1,-1,-1,-1,-1,-1],"loss_changes":[3.5401756E7,4.260502E6,6.331586E6,1.617316E6,2.929806E6,2.2026985E6,2.50875E6,1.12264E6,6.880478E4,1.20567E6,6.782612E6,1.2841489E6,8.179511E5,2.636372E6,4.258951E6,1.70937E5,1.022366E6,0E0,0E0,5.39591E5,8.296815E5,0E0,8.397467E5,5.028769E5,1.0947488E6,7.1159975E5,5.1770906E5,1.709047E6,3.13143E5,3.2834508E6,1.562725E6,0E0,0E0,5.73786E5,7.26108E5,2.4689756E5,0E0,1.1610075E6,5.930105E5,0E0,1.4163452E5,8.39107E5,2.7679188E4,5.7791375E5,3.6039375E4,3.89433E5,4.2205166E5,2.3264438E5,1.43721875E4,1.165059E6,4.9967034E5,0E0,0E0,7.194553E6,6.355363E6,7.88077E5,2.7827242E6,0E0,0E0,0E0,0E0,0E0,0E0,0E0,0E0,0E0,0E0,0E0,0E0,0E0,0E0,0E0,0E0,0E0,0E0,0E0,0E0,0E0,0E0,0E0,0E0,0E0,0E0,0E0,0E0,0E0,0E0,0E0,0E0,0E0,0E0,0E0,0E0,0E0,0E0,0E0,0E0],"parents":[2147483647,0,0,1,1,2,2,3,3,4,4,5,5,6,6,7,7,8,8,9,9,10,10,11,11,12,12,13,13,14,14,15,15,16,16,19,19,20,20,22,22,23,23,24,24,25,25,26,26,27,27,28,28,29,29,30,30,33,33,34,34,35,35,37,37,38,38,40,40,41,41,42,42,43,43,44,44,45,45,46,46,47,47,48,48,49,49,50,50,53,53,54,54,55,55,56,56],"right_children":[2,4,6,8,10,12,14,16,18,20,22,24,26,28,30,32,34,-1,-1,36,38,-1,40,42,44,46,48,50,52,54,56,-1,-1,58,60,62,-1,64,66,-1,68,70,72,74,76,78,80,82,84,86,88,-1,-1,90,92,94,96,-1,-1,-1,-1,-1,-1,-1,-1,-1,-1,-1,-1,-1,-1,-1,-1,-1,-1,-1,-1,-1,-1,-1,-1,-1,-1,-1,-1,-1,-1,-1,-1,-1,-1,-1,-1,-1,-1,-1,-1],"split_conditions":[7.5E-1,5.8E-1,9.98E-1,6.6048E2,5.21E0,8.8E-1,1.8105E-1,1.2E-1,5.2E-1,1.26E-2,6.7E0,2.6838E-2,3.02E-1,1.48E0,2.4069E0,5.22E1,2.16E-1,6.4291506E0,3.0830679E1,2.11E2,4.847028E-1,2.0462813E2,2.595E2,6.98E2,3.64E3,7.22709E-1,1.3E0,3.02E-1,4.642E2,6.0021E2,1.77E0,-4.346232E1,-9.445444E1,8.5E2,1.062E0,7.4E-2,-1.890013E1,7.2875E2,1.225E0,-4.8009686E1,7.91E2,5.414E2,8.1E-1,2.6625E-1,3.751E3,1E-1,8.9E-1,3.85E3,1.869E0,1.09E0,1.82E3,9.567722E1,3.999983E1,2.595E2,1.87E0,1.87E0,1.48E0,-3.2556732E1,-1.6471445E1,-5.460679E1,1.793728E1,-6.7173586E0,4.120739E1,-1.7300114E1,2.7831724E1,-4.7801826E1,-6.552588E0,3.2830875E1,-1.0291342E0,6.3348403E0,-4.7845703E1,3.5269493E1,7.12876E0,-6.8386016E0,-1.7258505E1,1.3982402E1,3.3974983E1,-3.2248337E0,6.2962127E0,3.11198E1,-1.837974E1,-6.3472915E0,5.8731284E0,2.12881E1,9.133897E0,1.11361685E1,2.0790075E1,-1.393989E1,9.051152E0,9.508826E0,-2.5214918E1,8.189196E0,1.5465874E2,2.4279041E1,-1.1614244E1,-7.423356E0,1.4137152E2],"split_indices":[4,4,4,2,3,4,6,4,4,3,3,6,1,4,6,0,1,0,0,0,6,0,0,0,0,6,1,1,2,2,1,0,0,0,1,1,0,2,6,0,0,0,4,6,0,1,4,0,3,4,0,0,0,0,4,4,3,0,0,0,0,0,0,0,0,0,0,0,0,0,0,0,0,0,0,0,0,0,0,0,0,0,0,0,0,0,0,0,0,0,0,0,0,0,0,0,0],"split_type":[0,0,0,0,0,0,0,0,0,0,0,0,0,0,0,0,0,0,0,0,0,0,0,0,0,0,0,0,0,0,0,0,0,0,0,0,0,0,0,0,0,0,0,0,0,0,0,0,0,0,0,0,0,0,0,0,0,0,0,0,0,0,0,0,0,0,0,0,0,0,0,0,0,0,0,0,0,0,0,0,0,0,0,0,0,0,0,0,0,0,0,0,0,0,0,0,0],"sum_hessian":[2.852E3,4.89E2,2.363E3,2.5E2,2.39E2,1.201E3,1.162E3,2.45E2,5E0,2.32E2,7E0,4.37E2,7.64E2,5.56E2,6.06E2,8E0,2.37E2,3E0,2E0,8E0,2.24E2,1E0,6E0,7E1,3.67E2,6.13E2,1.51E2,5.48E2,8E0,5.09E2,9.7E1,5E0,3E0,2.09E2,2.8E1,6E0,2E0,2.05E2,1.9E1,2E0,4E0,6.4E1,6E0,3.59E2,8E0,5.95E2,1.8E1,1.41E2,1E1,5.09E2,3.9E1,3E0,5E0,2.39E2,2.7E2,9.3E1,4E0,1.8E2,2.9E1,2.7E1,1E0,1E0,5E0,2E2,5E0,1.4E1,5E0,2E0,2E0,6.2E1,2E0,5E0,1E0,2.94E2,6.5E1,4E0,4E0,4.6E1,5.49E2,1E0,1.7E1,1.24E2,1.7E1,6E0,4E0,2.58E2,2.51E2,2.5E1,1.4E1,1.31E2,1.08E2,2.68E2,2E0,8.7E1,6E0,2E0,2E0],"tree_param":{"num_deleted":"0","num_feature":"8","num_nodes":"97","size_leaf_vector":"1"}},{"base_weights":[-1.0189977E1,-2.975409E2,2.9245378E1,-7.44426E2,-2.803889E2,-5.6353943E1,6.074604E1,-5.0333645E1,-9.8128406E2,-2.8808792E2,1.1602145E2,-5.1785824E1,-1.5539293E2,7.579475E1,-3.521454E1,-1.25230835E2,-3.8316513E1,-3.1217215E2,-1.7225043E2,-3.1452112E1,2.4019873E2,-1.0070561E2,-3.0814087E1,3.8978336E1,1.3897765E2,-1.765131E2,1.1100542E2,-3.173621E2,2.5033186E1,-4.157695E2,-1.188406E1,6.46416E1,3.118169E1,2.228194E2,-1.1534634E2,4.79412E1,-4.713379E1,8.724568E0,5.7928368E1,5.8330035E0,1.6921255E2,4.965657E1,-2.606373E2,1.4949449E2,-3.888568E2,-3.2968487E1,-9.000326E0,-1.7491146E1,-5.5811317E1,3.0104065E1,-1.4381821E1,-1.6196533E0,1.1315894E1,2.5240004E1,7.952474E0,8.379671E-1,-1.3741035E1,-2.27402E-1,1.6051426E1,-4.023788E0,-3.3382366E1,-1.9784134E1,1.8243307E0,1.1096682E1,3.60418E0,6.4001327E0,-4.9323325E0,5.771001E1,1.5911283E1,1.6840424E1,-1.4049379E1,-2.0026255E1,-5.349011E1,3.919644E0,2.1826475E1,-8.400019E0,-1.4138548E2],"categories":[],"categories_nodes":[],"categories_segments":[],"categories_sizes":[],"default_left":[0,0,0,0,0,0,0,0,0,0,0,0,0,0,0,0,0,0,0,0,0,0,0,0,0,0,0,0,0,0,0,0,0,0,0,0,0,0,0,0,0,0,0,0,0,0,0,0,0,0,0,0,0,0,0,0,0,0,0,0,0,0,0,0,0,0,0,0,0,0,0,0,0,0,0,0,0],"id":19,"left_children":[1,3,5,7,9,11,13,-1,15,17,19,21,-1,23,25,-1,-1,27,29,-1,31,33,35,37,39,41,43,45,-1,47,49,51,-1,53,55,57,59,61,63,65,67,69,71,73,75,-1,-1,-1,-1,-1,-1,-1,-1,-1,-1,-1,-1,-1,-1,-1,-1,-1,-1,-1,-1,-1,-1,-1,-1,-1,-1,-1,-1,-1,-1,-1,-1],"loss_changes":[3.2020996E7,2.405026E6,6.704065E6,1.913325E5,1.040574E6,4.4962275E6,2.6265675E6,0E0,3.306825E5,8.50142E5,4.4979278E5,6.822201E5,0E0,3.648992E6,5.1227795E6,0E0,0E0,8.58918E5,2.2600905E6,0E0,5.5282094E4,9.730294E5,6.05048E5,5.693645E5,2.325819E6,2.4102612E6,2.4053185E6,7.12776E5,0E0,6.90926E5,1.5295716E6,1.3598936E4,0E0,1.8076688E4,5.2529075E5,4.5824838E5,7.556161E5,7.5864806E5,7.052676E5,3.4965866E5,1.848487E6,8.139566E5,1.416272E6,8.561605E5,2.6935328E6,0E0,0E0,0E0,0E0,0E0,0E0,0E0,0E0,0E0,0E0,0E0,0E0,0E0,0E0,0E0,0E0,0E0,0E0,0E0,0E0,0E0,0E0,0E0,0E0,0E0,0E0,0E0,0E0,0E0,0E0,0E0,0E0],"parents":[2147483647,0,0,1,1,2,2,3,3,4,4,5,5,6,6,8,8,9,9,10,10,11,11,13,13,14,14,17,17,18,18,20,20,21,21,22,22,23,23,24,24,25,25,26,26,27,27,29,29,30,30,31,31,33,33,34,34,35,35,36,36,37,37,38,38,39,39,40,40,41,41,42,42,43,43,44,44],"right_children":[2,4,6,8,10,12,14,-1,16,18,20,22,-1,24,26,-1,-1,28,30,-1,32,34,36,38,40,42,44,46,-1,48,50,52,-1,54,56,58,60,62,64,66,68,70,72,74,76,-1,-1,-1,-1,-1,-1,-1,-1,-1,-1,-1,-1,